<?xml version="1.0"?>
<opencv_storage>
<cascade>
  <stageType>BOOST</stageType>
  <featureType>HAAR</featureType>
  <height>24</height>
  <width>24</width>
  <stageParams>
    <boostType>GAB</boostType>
    <minHitRate>9.9900001287460327e-01</minHitRate>
    <maxFalseAlarm>5.0000000000000000e-01</maxFalseAlarm>
    <weightTrimRate>9.4999999999999996e-01</weightTrimRate>
    <maxDepth>1</maxDepth>
    <maxWeakCount>100</maxWeakCount></stageParams>
  <featureParams>
    <maxCatCount>0</maxCatCount>
    <featSize>1</featSize>
    <mode>ALL</mode></featureParams>
  <stageNum>25</stageNum>
  <stages>
    <!-- stage 0 -->
    <_>
      <maxWeakCount>9</maxWeakCount>
      <stageThreshold>-1.9930074214935303e+00</stageThreshold>
      <weakClassifiers>
        <_>
          <internalNodes>
            0 -1 616 4.7008302062749863e-02</internalNodes>
          <leafValues>
            -8.0128902196884155e-01 7.1986895799636841e-01</leafValues></_>
        <_>
          <internalNodes>
            0 -1 90 -1.0602381825447083e-01</internalNodes>
          <leafValues>
            4.5794174075126648e-01 -6.3830602169036865e-01</leafValues></_>
        <_>
          <internalNodes>
            0 -1 131 -2.5394478812813759e-02</internalNodes>
          <leafValues>
            5.6645822525024414e-01 -5.3486096858978271e-01</leafValues></_>
        <_>
          <internalNodes>
            0 -1 529 -9.9822282791137695e-02</internalNodes>
          <leafValues>
            9.2915707826614380e-01 -3.0841204524040222e-01</leafValues></_>
        <_>
          <internalNodes>
            0 -1 462 7.3544539511203766e-02</internalNodes>
          <leafValues>
            -3.1020367145538330e-01 8.2651406526565552e-01</leafValues></_>
        <_>
          <internalNodes>
            0 -1 196 6.6705316305160522e-02</internalNodes>
          <leafValues>
            -5.4395908117294312e-01 4.0038049221038818e-01</leafValues></_>
        <_>
          <internalNodes>
            0 -1 631 5.6363465264439583e-03</internalNodes>
          <leafValues>
            2.0588847994804382e-01 -9.1354537010192871e-01</leafValues></_>
        <_>
          <internalNodes>
            0 -1 750 -6.0094729065895081e-02</internalNodes>
          <leafValues>
            8.1675106287002563e-01 -2.7347639203071594e-01</leafValues></_>
        <_>
          <internalNodes>
            0 -1 678 -7.2599295526742935e-04</internalNodes>
          <leafValues>
            -7.8984302282333374e-01 2.6727163791656494e-01</leafValues></_></weakClassifiers></_>
    <!-- stage 1 -->
    <_>
      <maxWeakCount>10</maxWeakCount>
      <stageThreshold>-1.8486323356628418e+00</stageThreshold>
      <weakClassifiers>
        <_>
          <internalNodes>
            0 -1 81 -4.6713489294052124e-01</internalNodes>
          <leafValues>
            5.9970784187316895e-01 -6.4563798904418945e-01</leafValues></_>
        <_>
          <internalNodes>
            0 -1 35 -4.2985022068023682e-02</internalNodes>
          <leafValues>
            5.4274326562881470e-01 -4.5491611957550049e-01</leafValues></_>
        <_>
          <internalNodes>
            0 -1 231 -5.6517672538757324e-01</internalNodes>
          <leafValues>
            9.2661535739898682e-01 -2.7028295397758484e-01</leafValues></_>
        <_>
          <internalNodes>
            0 -1 160 1.2595042586326599e-01</internalNodes>
          <leafValues>
            -3.6804682016372681e-01 6.5547120571136475e-01</leafValues></_>
        <_>
          <internalNodes>
            0 -1 205 -2.4262650404125452e-03</internalNodes>
          <leafValues>
            -8.1807667016983032e-01 2.6511904597282410e-01</leafValues></_>
        <_>
          <internalNodes>
            0 -1 790 -2.0027447491884232e-02</internalNodes>
          <leafValues>
            5.4334694147109985e-01 -3.4936287999153137e-01</leafValues></_>
        <_>
          <internalNodes>
            0 -1 365 1.3578753173351288e-01</internalNodes>
          <leafValues>
            -2.5789141654968262e-01 6.8377196788787842e-01</leafValues></_>
        <_>
          <internalNodes>
            0 -1 462 -1.3908347487449646e-01</internalNodes>
          <leafValues>
            8.6873137950897217e-01 -1.7178484797477722e-01</leafValues></_>
        <_>
          <internalNodes>
            0 -1 167 -5.5120480246841908e-03</internalNodes>
          <leafValues>
            -7.9412639141082764e-01 2.5629493594169617e-01</leafValues></_>
        <_>
          <internalNodes>
            0 -1 30 -6.4300507074221969e-04</internalNodes>
          <leafValues>
            2.3341310024261475e-01 -6.2814015150070190e-01</leafValues></_></weakClassifiers></_>
    <!-- stage 2 -->
    <_>
      <maxWeakCount>10</maxWeakCount>
      <stageThreshold>-2.0780444145202637e+00</stageThreshold>
      <weakClassifiers>
        <_>
          <internalNodes>
            0 -1 660 -3.6320991814136505e-02</internalNodes>
          <leafValues>
            4.8726892471313477e-01 -6.0586935281753540e-01</leafValues></_>
        <_>
          <internalNodes>
            0 -1 689 -9.1471045743674040e-04</internalNodes>
          <leafValues>
            3.3883723616600037e-01 -6.8928009271621704e-01</leafValues></_>
        <_>
          <internalNodes>
            0 -1 195 7.5707808136940002e-02</internalNodes>
          <leafValues>
            -7.5688111782073975e-01 2.6955822110176086e-01</leafValues></_>
        <_>
          <internalNodes>
            0 -1 84 -8.3218589425086975e-02</internalNodes>
          <leafValues>
            3.7999406456947327e-01 -5.0118625164031982e-01</leafValues></_>
        <_>
          <internalNodes>
            0 -1 463 1.1438186466693878e-01</internalNodes>
          <leafValues>
            -2.6355201005935669e-01 7.4545896053314209e-01</leafValues></_>
        <_>
          <internalNodes>
            0 -1 528 -1.0041771084070206e-01</internalNodes>
          <leafValues>
            8.1022351980209351e-01 -3.0079454183578491e-01</leafValues></_>
        <_>
          <internalNodes>
            0 -1 13 -4.0553794242441654e-03</internalNodes>
          <leafValues>
            4.7063192725181580e-01 -4.3038299679756165e-01</leafValues></_>
        <_>
          <internalNodes>
            0 -1 403 9.8456582054495811e-04</internalNodes>
          <leafValues>
            1.7774988710880280e-01 -8.9451390504837036e-01</leafValues></_>
        <_>
          <internalNodes>
            0 -1 403 -1.0567712597548962e-03</internalNodes>
          <leafValues>
            -9.0264099836349487e-01 1.5005689859390259e-01</leafValues></_>
        <_>
          <internalNodes>
            0 -1 809 5.8495707344263792e-04</internalNodes>
          <leafValues>
            1.1565574258565903e-01 -8.6577069759368896e-01</leafValues></_></weakClassifiers></_>
    <!-- stage 3 -->
    <_>
      <maxWeakCount>13</maxWeakCount>
      <stageThreshold>-2.2694904804229736e+00</stageThreshold>
      <weakClassifiers>
        <_>
          <internalNodes>
            0 -1 95 -5.7260990142822266e-01</internalNodes>
          <leafValues>
            6.6042405366897583e-01 -4.5825627446174622e-01</leafValues></_>
        <_>
          <internalNodes>
            0 -1 484 -9.7708087414503098e-03</internalNodes>
          <leafValues>
            4.1545364260673523e-01 -5.0614088773727417e-01</leafValues></_>
        <_>
          <internalNodes>
            0 -1 2 -3.7631143350154161e-03</internalNodes>
          <leafValues>
            4.0932962298393250e-01 -4.2117628455162048e-01</leafValues></_>
        <_>
          <internalNodes>
            0 -1 645 -1.1852256953716278e-01</internalNodes>
          <leafValues>
            8.8397645950317383e-01 -2.4229097366333008e-01</leafValues></_>
        <_>
          <internalNodes>
            0 -1 923 -5.8240024372935295e-03</internalNodes>
          <leafValues>
            4.3531674146652222e-01 -4.3756875395774841e-01</leafValues></_>
        <_>
          <internalNodes>
            0 -1 286 1.2619628012180328e-01</internalNodes>
          <leafValues>
            -4.4974467158317566e-01 3.5613441467285156e-01</leafValues></_>
        <_>
          <internalNodes>
            0 -1 66 -6.5108925104141235e-01</internalNodes>
          <leafValues>
            7.9537534713745117e-01 -2.3697611689567566e-01</leafValues></_>
        <_>
          <internalNodes>
            0 -1 120 -1.5571509720757604e-03</internalNodes>
          <leafValues>
            -6.9671452045440674e-01 2.6034176349639893e-01</leafValues></_>
        <_>
          <internalNodes>
            0 -1 806 -1.7518217209726572e-03</internalNodes>
          <leafValues>
            -7.7569782733917236e-01 1.4969557523727417e-01</leafValues></_>
        <_>
          <internalNodes>
            0 -1 726 5.0324457697570324e-03</internalNodes>
          <leafValues>
            1.6057956218719482e-01 -8.5158199071884155e-01</leafValues></_>
        <_>
          <internalNodes>
            0 -1 469 5.5622287094593048e-02</internalNodes>
          <leafValues>
            -3.6183562874794006e-01 4.1756242513656616e-01</leafValues></_>
        <_>
          <internalNodes>
            0 -1 444 2.1826527081429958e-03</internalNodes>
          <leafValues>
            1.3790088891983032e-01 -9.5017141103744507e-01</leafValues></_>
        <_>
          <internalNodes>
            0 -1 444 -1.5038682613521814e-03</internalNodes>
          <leafValues>
            -7.6900535821914673e-01 1.3598123192787170e-01</leafValues></_></weakClassifiers></_>
    <!-- stage 4 -->
    <_>
      <maxWeakCount>17</maxWeakCount>
      <stageThreshold>-2.2540609836578369e+00</stageThreshold>
      <weakClassifiers>
        <_>
          <internalNodes>
            0 -1 24 -1.3900247216224670e-01</internalNodes>
          <leafValues>
            2.9757171869277954e-01 -7.4791228771209717e-01</leafValues></_>
        <_>
          <internalNodes>
            0 -1 180 -1.5413302183151245e-01</internalNodes>
          <leafValues>
            6.5506744384765625e-01 -4.2699342966079712e-01</leafValues></_>
        <_>
          <internalNodes>
            0 -1 699 -3.8386102765798569e-02</internalNodes>
          <leafValues>
            4.4907271862030029e-01 -4.6230992674827576e-01</leafValues></_>
        <_>
          <internalNodes>
            0 -1 361 -4.6296519041061401e-01</internalNodes>
          <leafValues>
            8.7098306417465210e-01 -1.7970670759677887e-01</leafValues></_>
        <_>
          <internalNodes>
            0 -1 352 -8.3120347699150443e-04</internalNodes>
          <leafValues>
            3.3894690871238708e-01 -5.8119887113571167e-01</leafValues></_>
        <_>
          <internalNodes>
            0 -1 539 -9.7930341958999634e-02</internalNodes>
          <leafValues>
            6.6836953163146973e-01 -2.1861259639263153e-01</leafValues></_>
        <_>
          <internalNodes>
            0 -1 465 -1.1902081966400146e-01</internalNodes>
          <leafValues>
            7.4558454751968384e-01 -2.1868634223937988e-01</leafValues></_>
        <_>
          <internalNodes>
            0 -1 958 4.6307226875796914e-04</internalNodes>
          <leafValues>
            -5.7691121101379395e-01 2.8515186905860901e-01</leafValues></_>
        <_>
          <internalNodes>
            0 -1 99 -3.2543595880270004e-03</internalNodes>
          <leafValues>
            3.2917338609695435e-01 -3.4829732775688171e-01</leafValues></_>
        <_>
          <internalNodes>
            0 -1 212 6.3210204243659973e-03</internalNodes>
          <leafValues>
            1.4537899196147919e-01 -7.1764647960662842e-01</leafValues></_>
        <_>
          <internalNodes>
            0 -1 253 -9.0355158317834139e-04</internalNodes>
          <leafValues>
            -7.8474140167236328e-01 1.0211984813213348e-01</leafValues></_>
        <_>
          <internalNodes>
            0 -1 253 1.0713600786402822e-03</internalNodes>
          <leafValues>
            1.2115596979856491e-01 -7.1947354078292847e-01</leafValues></_>
        <_>
          <internalNodes>
            0 -1 320 1.0326581075787544e-02</internalNodes>
          <leafValues>
            -2.2433599829673767e-01 4.1498792171478271e-01</leafValues></_>
        <_>
          <internalNodes>
            0 -1 888 7.5387209653854370e-02</internalNodes>
          <leafValues>
            -1.6630898416042328e-01 6.5619575977325439e-01</leafValues></_>
        <_>
          <internalNodes>
            0 -1 270 -2.4966973811388016e-02</internalNodes>
          <leafValues>
            5.4733455181121826e-01 -1.7351636290550232e-01</leafValues></_>
        <_>
          <internalNodes>
            0 -1 262 -2.1026372909545898e-02</internalNodes>
          <leafValues>
            4.4901266694068909e-01 -2.8601723909378052e-01</leafValues></_>
        <_>
          <internalNodes>
            0 -1 496 3.8451133295893669e-03</internalNodes>
          <leafValues>
            -2.1404451131820679e-01 4.2862173914909363e-01</leafValues></_></weakClassifiers></_>
    <!-- stage 5 -->
    <_>
      <maxWeakCount>13</maxWeakCount>
      <stageThreshold>-2.3001971244812012e+00</stageThreshold>
      <weakClassifiers>
        <_>
          <internalNodes>
            0 -1 485 -1.5864107757806778e-02</internalNodes>
          <leafValues>
            6.6081720590591431e-01 -6.2640535831451416e-01</leafValues></_>
        <_>
          <internalNodes>
            0 -1 307 1.4715266227722168e-01</internalNodes>
          <leafValues>
            -3.9347580075263977e-01 7.3587727546691895e-01</leafValues></_>
        <_>
          <internalNodes>
            0 -1 91 -9.3534521758556366e-02</internalNodes>
          <leafValues>
            3.4098982810974121e-01 -5.6470286846160889e-01</leafValues></_>
        <_>
          <internalNodes>
            0 -1 418 7.9747259616851807e-02</internalNodes>
          <leafValues>
            -2.8400373458862305e-01 8.3426171541213989e-01</leafValues></_>
        <_>
          <internalNodes>
            0 -1 298 -2.7245057746767998e-02</internalNodes>
          <leafValues>
            4.9371728301048279e-01 -3.8264349102973938e-01</leafValues></_>
        <_>
          <internalNodes>
            0 -1 474 4.5696478337049484e-03</internalNodes>
          <leafValues>
            -1.7451174557209015e-01 6.8336898088455200e-01</leafValues></_>
        <_>
          <internalNodes>
            0 -1 620 2.9162473510950804e-03</internalNodes>
          <leafValues>
            -2.0096409320831299e-01 6.5368324518203735e-01</leafValues></_>
        <_>
          <internalNodes>
            0 -1 875 -4.6809567138552666e-03</internalNodes>
          <leafValues>
            4.8390501737594604e-01 -2.2899207472801208e-01</leafValues></_>
        <_>
          <internalNodes>
            0 -1 363 -4.3500316143035889e-01</internalNodes>
          <leafValues>
            6.8015515804290771e-01 -1.3964654505252838e-01</leafValues></_>
        <_>
          <internalNodes>
            0 -1 385 -4.6004027128219604e-02</internalNodes>
          <leafValues>
            5.8747041225433350e-01 -1.9144709408283234e-01</leafValues></_>
        <_>
          <internalNodes>
            0 -1 274 -1.7044028267264366e-02</internalNodes>
          <leafValues>
            3.3845365047454834e-01 -3.2845556735992432e-01</leafValues></_>
        <_>
          <internalNodes>
            0 -1 140 -2.9906490445137024e-01</internalNodes>
          <leafValues>
            -8.4627187252044678e-01 1.1103719472885132e-01</leafValues></_>
        <_>
          <internalNodes>
            0 -1 552 -5.5910246446728706e-03</internalNodes>
          <leafValues>
            4.6873700618743896e-01 -2.2417595982551575e-01</leafValues></_></weakClassifiers></_>
    <!-- stage 6 -->
    <_>
      <maxWeakCount>23</maxWeakCount>
      <stageThreshold>-2.2031323909759521e+00</stageThreshold>
      <weakClassifiers>
        <_>
          <internalNodes>
            0 -1 754 -9.3610599637031555e-02</internalNodes>
          <leafValues>
            5.8509534597396851e-01 -4.3752494454383850e-01</leafValues></_>
        <_>
          <internalNodes>
            0 -1 94 -2.1950772404670715e-01</internalNodes>
          <leafValues>
            5.3248655796051025e-01 -3.4396877884864807e-01</leafValues></_>
        <_>
          <internalNodes>
            0 -1 122 -1.3108917046338320e-03</internalNodes>
          <leafValues>
            2.7004718780517578e-01 -5.5919164419174194e-01</leafValues></_>
        <_>
          <internalNodes>
            0 -1 460 -2.7760115265846252e-01</internalNodes>
          <leafValues>
            8.2943129539489746e-01 -2.3359255492687225e-01</leafValues></_>
        <_>
          <internalNodes>
            0 -1 417 -5.2670300006866455e-02</internalNodes>
          <leafValues>
            6.2854218482971191e-01 -1.5541253983974457e-01</leafValues></_>
        <_>
          <internalNodes>
            0 -1 153 3.6920689046382904e-02</internalNodes>
          <leafValues>
            -7.9604971408843994e-01 1.2898710370063782e-01</leafValues></_>
        <_>
          <internalNodes>
            0 -1 39 -4.1718529537320137e-03</internalNodes>
          <leafValues>
            2.3730500042438507e-01 -4.7662112116813660e-01</leafValues></_>
        <_>
          <internalNodes>
            0 -1 491 -3.3024973236024380e-03</internalNodes>
          <leafValues>
            3.1579476594924927e-01 -3.4501826763153076e-01</leafValues></_>
        <_>
          <internalNodes>
            0 -1 441 6.7661399953067303e-04</internalNodes>
          <leafValues>
            1.2757781147956848e-01 -7.5789546966552734e-01</leafValues></_>
        <_>
          <internalNodes>
            0 -1 974 5.0866068340837955e-03</internalNodes>
          <leafValues>
            -2.8147363662719727e-01 3.7021052837371826e-01</leafValues></_>
        <_>
          <internalNodes>
            0 -1 223 1.0689581185579300e-01</internalNodes>
          <leafValues>
            -1.5348951518535614e-01 6.8693274259567261e-01</leafValues></_>
        <_>
          <internalNodes>
            0 -1 148 4.3386172503232956e-02</internalNodes>
          <leafValues>
            -2.2891420125961304e-01 5.2710872888565063e-01</leafValues></_>
        <_>
          <internalNodes>
            0 -1 439 -9.6876628231257200e-04</internalNodes>
          <leafValues>
            -7.3566770553588867e-01 1.5887251496315002e-01</leafValues></_>
        <_>
          <internalNodes>
            0 -1 100 -4.4942684471607208e-03</internalNodes>
          <leafValues>
            3.1797003746032715e-01 -2.6617243885993958e-01</leafValues></_>
        <_>
          <internalNodes>
            0 -1 940 -4.4871318095829338e-05</internalNodes>
          <leafValues>
            1.7394013702869415e-01 -4.5303151011466980e-01</leafValues></_>
        <_>
          <internalNodes>
            0 -1 305 -9.0200833976268768e-02</internalNodes>
          <leafValues>
            5.0046288967132568e-01 -2.2678777575492859e-01</leafValues></_>
        <_>
          <internalNodes>
            0 -1 833 -9.5288613811135292e-03</internalNodes>
          <leafValues>
            3.9495947957038879e-01 -2.0786064863204956e-01</leafValues></_>
        <_>
          <internalNodes>
            0 -1 574 -2.1706754341721535e-03</internalNodes>
          <leafValues>
            -7.8123271465301514e-01 1.0322668403387070e-01</leafValues></_>
        <_>
          <internalNodes>
            0 -1 574 1.9357947167009115e-03</internalNodes>
          <leafValues>
            8.0645263195037842e-02 -8.1423419713973999e-01</leafValues></_>
        <_>
          <internalNodes>
            0 -1 533 4.6935621649026871e-03</internalNodes>
          <leafValues>
            -2.0971553027629852e-01 3.8086435198783875e-01</leafValues></_>
        <_>
          <internalNodes>
            0 -1 171 -3.3813617192208767e-03</internalNodes>
          <leafValues>
            -7.6595675945281982e-01 1.0051110386848450e-01</leafValues></_>
        <_>
          <internalNodes>
            0 -1 641 2.9803041368722916e-02</internalNodes>
          <leafValues>
            -2.0894050598144531e-01 3.4687238931655884e-01</leafValues></_>
        <_>
          <internalNodes>
            0 -1 487 1.2972174212336540e-02</internalNodes>
          <leafValues>
            -1.2554088234901428e-01 5.0879949331283569e-01</leafValues></_></weakClassifiers></_>
    <!-- stage 7 -->
    <_>
      <maxWeakCount>28</maxWeakCount>
      <stageThreshold>-2.1393582820892334e+00</stageThreshold>
      <weakClassifiers>
        <_>
          <internalNodes>
            0 -1 310 9.0636476874351501e-02</internalNodes>
          <leafValues>
            -4.3369078636169434e-01 5.2588194608688354e-01</leafValues></_>
        <_>
          <internalNodes>
            0 -1 472 -2.2402944043278694e-02</internalNodes>
          <leafValues>
            4.8182666301727295e-01 -4.0353426337242126e-01</leafValues></_>
        <_>
          <internalNodes>
            0 -1 452 -5.2229007706046104e-03</internalNodes>
          <leafValues>
            3.3318707346916199e-01 -4.2524969577789307e-01</leafValues></_>
        <_>
          <internalNodes>
            0 -1 363 -4.7675859928131104e-01</internalNodes>
          <leafValues>
            7.7381962537765503e-01 -2.3636594414710999e-01</leafValues></_>
        <_>
          <internalNodes>
            0 -1 246 -3.2584351301193237e-01</internalNodes>
          <leafValues>
            6.2394952774047852e-01 -1.4895531535148621e-01</leafValues></_>
        <_>
          <internalNodes>
            0 -1 280 3.7284072488546371e-02</internalNodes>
          <leafValues>
            -7.9465794563293457e-01 1.2559552490711212e-01</leafValues></_>
        <_>
          <internalNodes>
            0 -1 14 -5.4012406617403030e-03</internalNodes>
          <leafValues>
            2.9453921318054199e-01 -3.1592234969139099e-01</leafValues></_>
        <_>
          <internalNodes>
            0 -1 731 3.9821502286940813e-04</internalNodes>
          <leafValues>
            1.4939691126346588e-01 -7.9568326473236084e-01</leafValues></_>
        <_>
          <internalNodes>
            0 -1 512 1.0821007937192917e-01</internalNodes>
          <leafValues>
            -1.5409292280673981e-01 6.9741845130920410e-01</leafValues></_>
        <_>
          <internalNodes>
            0 -1 54 -8.5269600152969360e-02</internalNodes>
          <leafValues>
            5.4414618015289307e-01 -1.9842022657394409e-01</leafValues></_>
        <_>
          <internalNodes>
            0 -1 96 -1.3742470741271973e-01</internalNodes>
          <leafValues>
            2.4774952232837677e-01 -3.3345702290534973e-01</leafValues></_>
        <_>
          <internalNodes>
            0 -1 89 1.7618365585803986e-02</internalNodes>
          <leafValues>
            1.2147033959627151e-01 -6.5066069364547729e-01</leafValues></_>
        <_>
          <internalNodes>
            0 -1 779 1.4949528500437737e-02</internalNodes>
          <leafValues>
            -1.7443391680717468e-01 4.9345475435256958e-01</leafValues></_>
        <_>
          <internalNodes>
            0 -1 729 -8.8163948385044932e-04</internalNodes>
          <leafValues>
            -7.6972806453704834e-01 1.1083213984966278e-01</leafValues></_>
        <_>
          <internalNodes>
            0 -1 903 -2.3863830137997866e-03</internalNodes>
          <leafValues>
            3.0667206645011902e-01 -2.7851691842079163e-01</leafValues></_>
        <_>
          <internalNodes>
            0 -1 859 6.4154849387705326e-03</internalNodes>
          <leafValues>
            1.0228675603866577e-01 -7.2449845075607300e-01</leafValues></_>
        <_>
          <internalNodes>
            0 -1 573 -7.1131697040982544e-05</internalNodes>
          <leafValues>
            1.3304644823074341e-01 -4.0947714447975159e-01</leafValues></_>
        <_>
          <internalNodes>
            0 -1 553 -7.3555260896682739e-03</internalNodes>
          <leafValues>
            4.3378290534019470e-01 -1.5311226248741150e-01</leafValues></_>
        <_>
          <internalNodes>
            0 -1 717 1.3902136124670506e-03</internalNodes>
          <leafValues>
            -1.3825495541095734e-01 4.8641392588615417e-01</leafValues></_>
        <_>
          <internalNodes>
            0 -1 396 7.9277809709310532e-04</internalNodes>
          <leafValues>
            9.8127827048301697e-02 -6.7786705493927002e-01</leafValues></_>
        <_>
          <internalNodes>
            0 -1 106 -3.3417670056223869e-03</internalNodes>
          <leafValues>
            3.0588483810424805e-01 -1.9465067982673645e-01</leafValues></_>
        <_>
          <internalNodes>
            0 -1 64 -6.6646657884120941e-02</internalNodes>
          <leafValues>
            -6.6392374038696289e-01 8.6727470159530640e-02</leafValues></_>
        <_>
          <internalNodes>
            0 -1 619 2.0139156840741634e-03</internalNodes>
          <leafValues>
            -1.2284047156572342e-01 5.2166140079498291e-01</leafValues></_>
        <_>
          <internalNodes>
            0 -1 569 6.0834287432953715e-04</internalNodes>
          <leafValues>
            9.0893171727657318e-02 -7.5891393423080444e-01</leafValues></_>
        <_>
          <internalNodes>
            0 -1 569 -5.3377496078610420e-04</internalNodes>
          <leafValues>
            -7.1095734834671021e-01 8.2898728549480438e-02</leafValues></_>
        <_>
          <internalNodes>
            0 -1 183 2.2522020339965820e-01</internalNodes>
          <leafValues>
            5.1005072891712189e-02 -8.3548170328140259e-01</leafValues></_>
        <_>
          <internalNodes>
            0 -1 1012 -1.4986321330070496e-02</internalNodes>
          <leafValues>
            -5.6253844499588013e-01 9.5548421144485474e-02</leafValues></_>
        <_>
          <internalNodes>
            0 -1 691 1.6485435888171196e-02</internalNodes>
          <leafValues>
            -1.3596081733703613e-01 4.5109486579895020e-01</leafValues></_></weakClassifiers></_>
    <!-- stage 8 -->
    <_>
      <maxWeakCount>30</maxWeakCount>
      <stageThreshold>-2.0712945461273193e+00</stageThreshold>
      <weakClassifiers>
        <_>
          <internalNodes>
            0 -1 182 -1.6950774192810059e-01</internalNodes>
          <leafValues>
            5.5969583988189697e-01 -3.9536678791046143e-01</leafValues></_>
        <_>
          <internalNodes>
            0 -1 480 -1.7996534705162048e-02</internalNodes>
          <leafValues>
            4.2353534698486328e-01 -4.3109101057052612e-01</leafValues></_>
        <_>
          <internalNodes>
            0 -1 314 3.2020630314946175e-03</internalNodes>
          <leafValues>
            -2.4584671854972839e-01 4.0129187703132629e-01</leafValues></_>
        <_>
          <internalNodes>
            0 -1 464 7.1407286450266838e-03</internalNodes>
          <leafValues>
            -2.5680851936340332e-01 4.9091300368309021e-01</leafValues></_>
        <_>
          <internalNodes>
            0 -1 481 -9.3733496963977814e-02</internalNodes>
          <leafValues>
            4.5904242992401123e-01 -2.0858095586299896e-01</leafValues></_>
        <_>
          <internalNodes>
            0 -1 526 -4.1399502754211426e-01</internalNodes>
          <leafValues>
            7.9104417562484741e-01 -1.4342267811298370e-01</leafValues></_>
        <_>
          <internalNodes>
            0 -1 513 -1.1080765398219228e-03</internalNodes>
          <leafValues>
            2.6663780212402344e-01 -5.0414085388183594e-01</leafValues></_>
        <_>
          <internalNodes>
            0 -1 11 -9.0050920844078064e-03</internalNodes>
          <leafValues>
            2.5225877761840820e-01 -3.4512972831726074e-01</leafValues></_>
        <_>
          <internalNodes>
            0 -1 468 -6.6277091391384602e-03</internalNodes>
          <leafValues>
            4.4664233922958374e-01 -1.8613749742507935e-01</leafValues></_>
        <_>
          <internalNodes>
            0 -1 571 -5.4850229062139988e-03</internalNodes>
          <leafValues>
            -8.2468742132186890e-01 1.1389797180891037e-01</leafValues></_>
        <_>
          <internalNodes>
            0 -1 961 9.9109578877687454e-04</internalNodes>
          <leafValues>
            -3.3157473802566528e-01 1.8609599769115448e-01</leafValues></_>
        <_>
          <internalNodes>
            0 -1 719 -3.3352733589708805e-03</internalNodes>
          <leafValues>
            4.0140032768249512e-01 -1.7417901754379272e-01</leafValues></_>
        <_>
          <internalNodes>
            0 -1 907 -2.2082948125898838e-03</internalNodes>
          <leafValues>
            2.6872429251670837e-01 -2.4052967131137848e-01</leafValues></_>
        <_>
          <internalNodes>
            0 -1 129 9.9949091672897339e-03</internalNodes>
          <leafValues>
            9.9241696298122406e-02 -7.5980615615844727e-01</leafValues></_>
        <_>
          <internalNodes>
            0 -1 760 2.2572223097085953e-03</internalNodes>
          <leafValues>
            -1.6751858592033386e-01 4.7163191437721252e-01</leafValues></_>
        <_>
          <internalNodes>
            0 -1 718 1.8485931213945150e-03</internalNodes>
          <leafValues>
            -1.1723357439041138e-01 5.3120160102844238e-01</leafValues></_>
        <_>
          <internalNodes>
            0 -1 912 -1.1254718992859125e-03</internalNodes>
          <leafValues>
            -5.8864623308181763e-01 1.1619466543197632e-01</leafValues></_>
        <_>
          <internalNodes>
            0 -1 224 -1.2806544080376625e-02</internalNodes>
          <leafValues>
            3.2423365116119385e-01 -1.9425818324089050e-01</leafValues></_>
        <_>
          <internalNodes>
            0 -1 145 -8.9829854667186737e-02</internalNodes>
          <leafValues>
            2.1417507529258728e-01 -2.7070903778076172e-01</leafValues></_>
        <_>
          <internalNodes>
            0 -1 413 -2.1646302193403244e-02</internalNodes>
          <leafValues>
            -7.8396385908126831e-01 7.1897886693477631e-02</leafValues></_>
        <_>
          <internalNodes>
            0 -1 670 2.1469567436724901e-03</internalNodes>
          <leafValues>
            -1.5122023224830627e-01 4.3133127689361572e-01</leafValues></_>
        <_>
          <internalNodes>
            0 -1 199 6.8896114826202393e-03</internalNodes>
          <leafValues>
            1.0251712054014206e-01 -6.4173179864883423e-01</leafValues></_>
        <_>
          <internalNodes>
            0 -1 728 6.7056226544082165e-04</internalNodes>
          <leafValues>
            4.7753930091857910e-02 -8.7563818693161011e-01</leafValues></_>
        <_>
          <internalNodes>
            0 -1 564 2.6252958923578262e-03</internalNodes>
          <leafValues>
            -1.6487997770309448e-01 3.5545948147773743e-01</leafValues></_>
        <_>
          <internalNodes>
            0 -1 883 -1.7013112083077431e-03</internalNodes>
          <leafValues>
            -6.8772369623184204e-01 8.0302491784095764e-02</leafValues></_>
        <_>
          <internalNodes>
            0 -1 740 6.9076884537935257e-03</internalNodes>
          <leafValues>
            -1.8361666798591614e-01 3.2142344117164612e-01</leafValues></_>
        <_>
          <internalNodes>
            0 -1 299 1.0259956121444702e-01</internalNodes>
          <leafValues>
            -9.7483746707439423e-02 5.5559110641479492e-01</leafValues></_>
        <_>
          <internalNodes>
            0 -1 711 -3.0459079891443253e-02</internalNodes>
          <leafValues>
            3.2819524407386780e-01 -1.7185698449611664e-01</leafValues></_>
        <_>
          <internalNodes>
            0 -1 696 -1.0394428670406342e-01</internalNodes>
          <leafValues>
            -5.3193765878677368e-01 1.0669734328985214e-01</leafValues></_>
        <_>
          <internalNodes>
            0 -1 683 -9.6089467406272888e-03</internalNodes>
          <leafValues>
            -7.3732250928878784e-01 6.7501559853553772e-02</leafValues></_></weakClassifiers></_>
    <!-- stage 9 -->
    <_>
      <maxWeakCount>37</maxWeakCount>
      <stageThreshold>-1.9792499542236328e+00</stageThreshold>
      <weakClassifiers>
        <_>
          <internalNodes>
            0 -1 428 -2.5084521621465683e-02</internalNodes>
          <leafValues>
            2.7419012784957886e-01 -5.0995242595672607e-01</leafValues></_>
        <_>
          <internalNodes>
            0 -1 411 -1.4663058519363403e-01</internalNodes>
          <leafValues>
            5.4013997316360474e-01 -2.6388359069824219e-01</leafValues></_>
        <_>
          <internalNodes>
            0 -1 710 -4.0060527622699738e-02</internalNodes>
          <leafValues>
            6.7364615201950073e-01 -1.4808610081672668e-01</leafValues></_>
        <_>
          <internalNodes>
            0 -1 577 -1.6918238252401352e-03</internalNodes>
          <leafValues>
            2.0932921767234802e-01 -5.2987802028656006e-01</leafValues></_>
        <_>
          <internalNodes>
            0 -1 87 -4.2653018608689308e-03</internalNodes>
          <leafValues>
            3.6556160449981689e-01 -2.4050031602382660e-01</leafValues></_>
        <_>
          <internalNodes>
            0 -1 354 9.2468991875648499e-02</internalNodes>
          <leafValues>
            -1.4080163836479187e-01 6.0764586925506592e-01</leafValues></_>
        <_>
          <internalNodes>
            0 -1 95 -5.2587437629699707e-01</internalNodes>
          <leafValues>
            4.2407092452049255e-01 -2.5958693027496338e-01</leafValues></_>
        <_>
          <internalNodes>
            0 -1 561 7.6656723394989967e-03</internalNodes>
          <leafValues>
            -2.1303601562976837e-01 4.4238638877868652e-01</leafValues></_>
        <_>
          <internalNodes>
            0 -1 213 -1.3033251278102398e-02</internalNodes>
          <leafValues>
            2.3694930970668793e-01 -3.3348417282104492e-01</leafValues></_>
        <_>
          <internalNodes>
            0 -1 350 -6.5718799829483032e-02</internalNodes>
          <leafValues>
            -6.7504608631134033e-01 9.0001605451107025e-02</leafValues></_>
        <_>
          <internalNodes>
            0 -1 118 -1.7222495516762137e-03</internalNodes>
          <leafValues>
            -6.5163522958755493e-01 8.3947382867336273e-02</leafValues></_>
        <_>
          <internalNodes>
            0 -1 668 2.8830985538661480e-03</internalNodes>
          <leafValues>
            -1.2514226138591766e-01 5.0710088014602661e-01</leafValues></_>
        <_>
          <internalNodes>
            0 -1 12 -6.1324762646108866e-04</internalNodes>
          <leafValues>
            1.4619883894920349e-01 -4.1595602035522461e-01</leafValues></_>
        <_>
          <internalNodes>
            0 -1 975 9.0151075273752213e-03</internalNodes>
          <leafValues>
            -1.7948171496391296e-01 3.2455873489379883e-01</leafValues></_>
        <_>
          <internalNodes>
            0 -1 73 -4.7549504041671753e-01</internalNodes>
          <leafValues>
            5.5102765560150146e-01 -1.6079874336719513e-01</leafValues></_>
        <_>
          <internalNodes>
            0 -1 198 -1.0231099277734756e-01</internalNodes>
          <leafValues>
            3.8444077968597412e-01 -1.8828195333480835e-01</leafValues></_>
        <_>
          <internalNodes>
            0 -1 230 -1.8183133006095886e-01</internalNodes>
          <leafValues>
            -7.2100251913070679e-01 7.9202502965927124e-02</leafValues></_>
        <_>
          <internalNodes>
            0 -1 116 -1.4298926107585430e-03</internalNodes>
          <leafValues>
            -6.0044586658477783e-01 8.2106426358222961e-02</leafValues></_>
        <_>
          <internalNodes>
            0 -1 156 3.7951838970184326e-01</internalNodes>
          <leafValues>
            6.4579665660858154e-02 -7.4541950225830078e-01</leafValues></_>
        <_>
          <internalNodes>
            0 -1 755 7.4273580685257912e-04</internalNodes>
          <leafValues>
            -2.4345952272415161e-01 2.5836348533630371e-01</leafValues></_>
        <_>
          <internalNodes>
            0 -1 757 4.3491525575518608e-03</internalNodes>
          <leafValues>
            -1.0743469744920731e-01 5.4430854320526123e-01</leafValues></_>
        <_>
          <internalNodes>
            0 -1 881 1.4811244327574968e-03</internalNodes>
          <leafValues>
            7.6343171298503876e-02 -8.2703667879104614e-01</leafValues></_>
        <_>
          <internalNodes>
            0 -1 634 1.6401509055867791e-03</internalNodes>
          <leafValues>
            5.2244909107685089e-02 -7.5089818239212036e-01</leafValues></_>
        <_>
          <internalNodes>
            0 -1 60 7.9720810055732727e-02</internalNodes>
          <leafValues>
            4.8501729965209961e-02 -7.9679441452026367e-01</leafValues></_>
        <_>
          <internalNodes>
            0 -1 632 1.8894961103796959e-03</internalNodes>
          <leafValues>
            4.8409875482320786e-02 -7.0307493209838867e-01</leafValues></_>
        <_>
          <internalNodes>
            0 -1 364 1.9581783562898636e-02</internalNodes>
          <leafValues>
            -1.1786212027072906e-01 3.9253506064414978e-01</leafValues></_>
        <_>
          <internalNodes>
            0 -1 135 2.2998671978712082e-02</internalNodes>
          <leafValues>
            -1.0151005536317825e-01 4.6554857492446899e-01</leafValues></_>
        <_>
          <internalNodes>
            0 -1 5 -1.2215224560350180e-03</internalNodes>
          <leafValues>
            2.6474905014038086e-01 -1.9721190631389618e-01</leafValues></_>
        <_>
          <internalNodes>
            0 -1 366 1.0140033066272736e-01</internalNodes>
          <leafValues>
            7.5501598417758942e-02 -6.3169193267822266e-01</leafValues></_>
        <_>
          <internalNodes>
            0 -1 506 1.7971358029171824e-03</internalNodes>
          <leafValues>
            5.8006078004837036e-02 -7.3542213439941406e-01</leafValues></_>
        <_>
          <internalNodes>
            0 -1 45 -1.0838629305362701e-01</internalNodes>
          <leafValues>
            -4.3301132321357727e-01 1.0485702753067017e-01</leafValues></_>
        <_>
          <internalNodes>
            0 -1 505 -1.5885322354733944e-03</internalNodes>
          <leafValues>
            -7.1146076917648315e-01 6.7086450755596161e-02</leafValues></_>
        <_>
          <internalNodes>
            0 -1 488 -1.8250722438097000e-02</internalNodes>
          <leafValues>
            1.8196521699428558e-01 -2.5867131352424622e-01</leafValues></_>
        <_>
          <internalNodes>
            0 -1 629 -3.4088001120835543e-03</internalNodes>
          <leafValues>
            -7.1368271112442017e-01 7.1883372962474823e-02</leafValues></_>
        <_>
          <internalNodes>
            0 -1 669 2.6765533257275820e-03</internalNodes>
          <leafValues>
            -1.0437608510255814e-01 5.5494815111160278e-01</leafValues></_>
        <_>
          <internalNodes>
            0 -1 163 6.2309816712513566e-05</internalNodes>
          <leafValues>
            -4.0435782074928284e-01 1.4783260226249695e-01</leafValues></_>
        <_>
          <internalNodes>
            0 -1 260 -1.8259112257510424e-03</internalNodes>
          <leafValues>
            1.6871722042560577e-01 -2.9156109690666199e-01</leafValues></_></weakClassifiers></_>
    <!-- stage 10 -->
    <_>
      <maxWeakCount>43</maxWeakCount>
      <stageThreshold>-2.0993371009826660e+00</stageThreshold>
      <weakClassifiers>
        <_>
          <internalNodes>
            0 -1 146 9.4765700399875641e-02</internalNodes>
          <leafValues>
            -4.3243446946144104e-01 3.4152531623840332e-01</leafValues></_>
        <_>
          <internalNodes>
            0 -1 275 -5.5506698787212372e-02</internalNodes>
          <leafValues>
            2.7537733316421509e-01 -4.9941948056221008e-01</leafValues></_>
        <_>
          <internalNodes>
            0 -1 701 2.1218876354396343e-03</internalNodes>
          <leafValues>
            -2.3392030596733093e-01 4.1343533992767334e-01</leafValues></_>
        <_>
          <internalNodes>
            0 -1 27 -3.5636126995086670e-04</internalNodes>
          <leafValues>
            1.5461546182632446e-01 -5.4735690355300903e-01</leafValues></_>
        <_>
          <internalNodes>
            0 -1 647 -4.2690560221672058e-02</internalNodes>
          <leafValues>
            6.6443765163421631e-01 -1.4607059955596924e-01</leafValues></_>
        <_>
          <internalNodes>
            0 -1 842 -3.6794324405491352e-03</internalNodes>
          <leafValues>
            3.4022364020347595e-01 -2.2925740480422974e-01</leafValues></_>
        <_>
          <internalNodes>
            0 -1 158 -6.8078876938670874e-04</internalNodes>
          <leafValues>
            2.2038923203945160e-01 -3.8195711374282837e-01</leafValues></_>
        <_>
          <internalNodes>
            0 -1 268 7.6352164149284363e-02</internalNodes>
          <leafValues>
            -1.6048447787761688e-01 5.1565217971801758e-01</leafValues></_>
        <_>
          <internalNodes>
            0 -1 432 -5.4906800389289856e-02</internalNodes>
          <leafValues>
            3.3799013495445251e-01 -2.2012548148632050e-01</leafValues></_>
        <_>
          <internalNodes>
            0 -1 243 3.7789024412631989e-02</internalNodes>
          <leafValues>
            -7.0308935642242432e-01 1.3893449306488037e-01</leafValues></_>
        <_>
          <internalNodes>
            0 -1 354 -1.2155129015445709e-01</internalNodes>
          <leafValues>
            4.7751918435096741e-01 -1.5601959824562073e-01</leafValues></_>
        <_>
          <internalNodes>
            0 -1 663 -3.6560848355293274e-02</internalNodes>
          <leafValues>
            4.7569912672042847e-01 -1.6734047234058380e-01</leafValues></_>
        <_>
          <internalNodes>
            0 -1 21 -4.2596291750669479e-03</internalNodes>
          <leafValues>
            2.1367309987545013e-01 -3.3332434296607971e-01</leafValues></_>
        <_>
          <internalNodes>
            0 -1 343 7.6621014159172773e-04</internalNodes>
          <leafValues>
            5.8865405619144440e-02 -5.8346146345138550e-01</leafValues></_>
        <_>
          <internalNodes>
            0 -1 1013 -1.7075413838028908e-02</internalNodes>
          <leafValues>
            -6.4041519165039062e-01 9.1619171202182770e-02</leafValues></_>
        <_>
          <internalNodes>
            0 -1 478 4.7969883307814598e-03</internalNodes>
          <leafValues>
            -1.7412805557250977e-01 3.6016216874122620e-01</leafValues></_>
        <_>
          <internalNodes>
            0 -1 347 -1.7560897395014763e-03</internalNodes>
          <leafValues>
            -6.5469485521316528e-01 8.9422076940536499e-02</leafValues></_>
        <_>
          <internalNodes>
            0 -1 168 -1.9206674769520760e-03</internalNodes>
          <leafValues>
            -5.8959519863128662e-01 8.5243664681911469e-02</leafValues></_>
        <_>
          <internalNodes>
            0 -1 761 1.6480523627251387e-03</internalNodes>
          <leafValues>
            -1.3882933557033539e-01 4.4180846214294434e-01</leafValues></_>
        <_>
          <internalNodes>
            0 -1 438 7.0622330531477928e-04</internalNodes>
          <leafValues>
            7.9066343605518341e-02 -7.5717985630035400e-01</leafValues></_>
        <_>
          <internalNodes>
            0 -1 112 -1.3373476685956120e-03</internalNodes>
          <leafValues>
            2.8804188966751099e-01 -1.8445630371570587e-01</leafValues></_>
        <_>
          <internalNodes>
            0 -1 692 -1.7009827494621277e-01</internalNodes>
          <leafValues>
            8.1554496288299561e-01 -6.6982097923755646e-02</leafValues></_>
        <_>
          <internalNodes>
            0 -1 996 9.4081580755300820e-05</internalNodes>
          <leafValues>
            -2.9744333028793335e-01 1.6892200708389282e-01</leafValues></_>
        <_>
          <internalNodes>
            0 -1 764 2.3962552659213543e-03</internalNodes>
          <leafValues>
            -9.8598539829254150e-02 4.6991917490959167e-01</leafValues></_>
        <_>
          <internalNodes>
            0 -1 456 -1.8870519474148750e-02</internalNodes>
          <leafValues>
            -7.3308092355728149e-01 6.9637604057788849e-02</leafValues></_>
        <_>
          <internalNodes>
            0 -1 585 -2.9834532178938389e-03</internalNodes>
          <leafValues>
            2.4537587165832520e-01 -1.7722488939762115e-01</leafValues></_>
        <_>
          <internalNodes>
            0 -1 684 -1.5143679454922676e-02</internalNodes>
          <leafValues>
            -8.2206016778945923e-01 6.4272306859493256e-02</leafValues></_>
        <_>
          <internalNodes>
            0 -1 349 6.8858632585033774e-04</internalNodes>
          <leafValues>
            -1.8330119550228119e-01 2.2475492954254150e-01</leafValues></_>
        <_>
          <internalNodes>
            0 -1 356 1.4187278226017952e-02</internalNodes>
          <leafValues>
            -1.2701703608036041e-01 3.9508000016212463e-01</leafValues></_>
        <_>
          <internalNodes>
            0 -1 736 -8.2120846491307020e-04</internalNodes>
          <leafValues>
            1.8458431959152222e-01 -3.0135533213615417e-01</leafValues></_>
        <_>
          <internalNodes>
            0 -1 271 4.6315565705299377e-03</internalNodes>
          <leafValues>
            -1.3834869861602783e-01 3.0780047178268433e-01</leafValues></_>
        <_>
          <internalNodes>
            0 -1 866 9.1359958052635193e-02</internalNodes>
          <leafValues>
            8.5827663540840149e-02 -5.3201210498809814e-01</leafValues></_>
        <_>
          <internalNodes>
            0 -1 630 -4.7154905041679740e-04</internalNodes>
          <leafValues>
            -7.7174943685531616e-01 5.0995185971260071e-02</leafValues></_>
        <_>
          <internalNodes>
            0 -1 378 -1.5280118212103844e-02</internalNodes>
          <leafValues>
            3.3898329734802246e-01 -1.4012731611728668e-01</leafValues></_>
        <_>
          <internalNodes>
            0 -1 568 1.1499520624056458e-03</internalNodes>
          <leafValues>
            6.0715645551681519e-02 -7.9023045301437378e-01</leafValues></_>
        <_>
          <internalNodes>
            0 -1 372 1.3656241819262505e-02</internalNodes>
          <leafValues>
            -1.1732849478721619e-01 4.2652609944343567e-01</leafValues></_>
        <_>
          <internalNodes>
            0 -1 72 -6.5672546625137329e-02</internalNodes>
          <leafValues>
            -6.3124138116836548e-01 7.4507877230644226e-02</leafValues></_>
        <_>
          <internalNodes>
            0 -1 18 -1.5098831616342068e-02</internalNodes>
          <leafValues>
            2.4203398823738098e-01 -1.8500107526779175e-01</leafValues></_>
        <_>
          <internalNodes>
            0 -1 404 -1.6541433287784457e-03</internalNodes>
          <leafValues>
            -5.7670259475708008e-01 7.6697498559951782e-02</leafValues></_>
        <_>
          <internalNodes>
            0 -1 853 5.6538934586569667e-04</internalNodes>
          <leafValues>
            -1.7760598659515381e-01 2.3346519470214844e-01</leafValues></_>
        <_>
          <internalNodes>
            0 -1 1001 -2.7506832033395767e-02</internalNodes>
          <leafValues>
            -6.4197403192520142e-01 6.6012144088745117e-02</leafValues></_>
        <_>
          <internalNodes>
            0 -1 57 -3.0015847086906433e-01</internalNodes>
          <leafValues>
            -6.9675362110137939e-01 5.4127238690853119e-02</leafValues></_>
        <_>
          <internalNodes>
            0 -1 360 7.5469315052032471e-03</internalNodes>
          <leafValues>
            -1.3817851245403290e-01 2.9989221692085266e-01</leafValues></_></weakClassifiers></_>
    <!-- stage 11 -->
    <_>
      <maxWeakCount>48</maxWeakCount>
      <stageThreshold>-2.0648949146270752e+00</stageThreshold>
      <weakClassifiers>
        <_>
          <internalNodes>
            0 -1 53 -1.1570984125137329e-01</internalNodes>
          <leafValues>
            4.7753268480300903e-01 -3.4821429848670959e-01</leafValues></_>
        <_>
          <internalNodes>
            0 -1 276 -8.9713618159294128e-02</internalNodes>
          <leafValues>
            3.2768487930297852e-01 -3.0638691782951355e-01</leafValues></_>
        <_>
          <internalNodes>
            0 -1 43 -7.1759098209440708e-03</internalNodes>
          <leafValues>
            2.3101204633712769e-01 -4.4151630997657776e-01</leafValues></_>
        <_>
          <internalNodes>
            0 -1 739 3.1655414495617151e-03</internalNodes>
          <leafValues>
            -2.8207096457481384e-01 2.4523967504501343e-01</leafValues></_>
        <_>
          <internalNodes>
            0 -1 306 -1.6639423370361328e-01</internalNodes>
          <leafValues>
            5.9242707490921021e-01 -1.6567087173461914e-01</leafValues></_>
        <_>
          <internalNodes>
            0 -1 161 1.9310298562049866e-01</internalNodes>
          <leafValues>
            -3.0591338872909546e-01 3.2466235756874084e-01</leafValues></_>
        <_>
          <internalNodes>
            0 -1 946 1.5795938670635223e-03</internalNodes>
          <leafValues>
            -1.7336395382881165e-01 2.8855913877487183e-01</leafValues></_>
        <_>
          <internalNodes>
            0 -1 579 6.2791951000690460e-02</internalNodes>
          <leafValues>
            -1.1137548089027405e-01 5.1256287097930908e-01</leafValues></_>
        <_>
          <internalNodes>
            0 -1 877 -2.2534569725394249e-03</internalNodes>
          <leafValues>
            2.7047497034072876e-01 -2.1398702263832092e-01</leafValues></_>
        <_>
          <internalNodes>
            0 -1 437 8.7025813991203904e-04</internalNodes>
          <leafValues>
            9.3815132975578308e-02 -6.2405478954315186e-01</leafValues></_>
        <_>
          <internalNodes>
            0 -1 164 -2.7726255357265472e-03</internalNodes>
          <leafValues>
            3.1648576259613037e-01 -1.7960999906063080e-01</leafValues></_>
        <_>
          <internalNodes>
            0 -1 503 3.4643022809177637e-04</internalNodes>
          <leafValues>
            5.6106410920619965e-02 -7.7939176559448242e-01</leafValues></_>
        <_>
          <internalNodes>
            0 -1 898 -6.6168725490570068e-02</internalNodes>
          <leafValues>
            -6.9635689258575439e-01 5.3462930023670197e-02</leafValues></_>
        <_>
          <internalNodes>
            0 -1 663 2.9322534799575806e-02</internalNodes>
          <leafValues>
            -1.3303352892398834e-01 4.1240319609642029e-01</leafValues></_>
        <_>
          <internalNodes>
            0 -1 672 8.0367620103061199e-04</internalNodes>
          <leafValues>
            -2.0801702141761780e-01 3.0519953370094299e-01</leafValues></_>
        <_>
          <internalNodes>
            0 -1 734 5.4587153717875481e-03</internalNodes>
          <leafValues>
            8.4718778729438782e-02 -6.7986840009689331e-01</leafValues></_>
        <_>
          <internalNodes>
            0 -1 794 1.4069388853386045e-03</internalNodes>
          <leafValues>
            -1.1454665660858154e-01 4.2253866791725159e-01</leafValues></_>
        <_>
          <internalNodes>
            0 -1 682 2.3566633462905884e-03</internalNodes>
          <leafValues>
            6.5771847963333130e-02 -7.6792049407958984e-01</leafValues></_>
        <_>
          <internalNodes>
            0 -1 248 -4.8678286373615265e-02</internalNodes>
          <leafValues>
            -5.4332494735717773e-01 6.7852452397346497e-02</leafValues></_>
        <_>
          <internalNodes>
            0 -1 382 2.9650336364284158e-04</internalNodes>
          <leafValues>
            -1.5890352427959442e-01 2.7954655885696411e-01</leafValues></_>
        <_>
          <internalNodes>
            0 -1 851 -1.0384072083979845e-03</internalNodes>
          <leafValues>
            -5.4537653923034668e-01 7.7673092484474182e-02</leafValues></_>
        <_>
          <internalNodes>
            0 -1 671 6.2200345564633608e-04</internalNodes>
          <leafValues>
            -1.1250428110361099e-01 3.7364625930786133e-01</leafValues></_>
        <_>
          <internalNodes>
            0 -1 1 -8.0912141129374504e-04</internalNodes>
          <leafValues>
            1.3886420428752899e-01 -3.0312749743461609e-01</leafValues></_>
        <_>
          <internalNodes>
            0 -1 179 9.6625108271837234e-03</internalNodes>
          <leafValues>
            6.9498173892498016e-02 -5.9598392248153687e-01</leafValues></_>
        <_>
          <internalNodes>
            0 -1 76 5.9917084872722626e-02</internalNodes>
          <leafValues>
            4.4693909585475922e-02 -7.2520250082015991e-01</leafValues></_>
        <_>
          <internalNodes>
            0 -1 993 -1.2310747988522053e-03</internalNodes>
          <leafValues>
            -5.5193132162094116e-01 6.0452375560998917e-02</leafValues></_>
        <_>
          <internalNodes>
            0 -1 61 -2.4488234519958496e-01</internalNodes>
          <leafValues>
            -7.8109008073806763e-01 4.1017819195985794e-02</leafValues></_>
        <_>
          <internalNodes>
            0 -1 146 5.6860364973545074e-02</internalNodes>
          <leafValues>
            -1.6716495156288147e-01 2.5262734293937683e-01</leafValues></_>
        <_>
          <internalNodes>
            0 -1 608 6.6739782691001892e-02</internalNodes>
          <leafValues>
            -1.4788915216922760e-01 3.1593656539916992e-01</leafValues></_>
        <_>
          <internalNodes>
            0 -1 400 -3.6014982033520937e-03</internalNodes>
          <leafValues>
            2.4604585766792297e-01 -1.7654377222061157e-01</leafValues></_>
        <_>
          <internalNodes>
            0 -1 388 6.2447208911180496e-03</internalNodes>
          <leafValues>
            -1.1319299787282944e-01 3.5990074276924133e-01</leafValues></_>
        <_>
          <internalNodes>
            0 -1 677 7.5774412835016847e-04</internalNodes>
          <leafValues>
            4.8981036990880966e-02 -8.5799634456634521e-01</leafValues></_>
        <_>
          <internalNodes>
            0 -1 922 -1.3065553503111005e-04</internalNodes>
          <leafValues>
            1.0011965036392212e-01 -3.5462355613708496e-01</leafValues></_>
        <_>
          <internalNodes>
            0 -1 300 2.7237588539719582e-02</internalNodes>
          <leafValues>
            -9.9357649683952332e-02 4.4016057252883911e-01</leafValues></_>
        <_>
          <internalNodes>
            0 -1 113 -2.1675969474017620e-03</internalNodes>
          <leafValues>
            -6.2934952974319458e-01 7.1249365806579590e-02</leafValues></_>
        <_>
          <internalNodes>
            0 -1 654 -1.2699660658836365e-01</internalNodes>
          <leafValues>
            7.7912586927413940e-01 -6.1049334704875946e-02</leafValues></_>
        <_>
          <internalNodes>
            0 -1 451 -9.5831397920846939e-03</internalNodes>
          <leafValues>
            2.6211267709732056e-01 -1.5090553462505341e-01</leafValues></_>
        <_>
          <internalNodes>
            0 -1 424 -1.1232357472181320e-02</internalNodes>
          <leafValues>
            5.9850126504898071e-01 -7.1705915033817291e-02</leafValues></_>
        <_>
          <internalNodes>
            0 -1 832 8.1705767661333084e-04</internalNodes>
          <leafValues>
            -1.7539845407009125e-01 2.2892874479293823e-01</leafValues></_>
        <_>
          <internalNodes>
            0 -1 679 -6.8168470170348883e-04</internalNodes>
          <leafValues>
            -6.1282759904861450e-01 6.8123526871204376e-02</leafValues></_>
        <_>
          <internalNodes>
            0 -1 948 4.7782575711607933e-03</internalNodes>
          <leafValues>
            6.6406771540641785e-02 -5.1208859682083130e-01</leafValues></_>
        <_>
          <internalNodes>
            0 -1 173 2.3482216056436300e-03</internalNodes>
          <leafValues>
            5.0836194306612015e-02 -6.1732864379882812e-01</leafValues></_>
        <_>
          <internalNodes>
            0 -1 936 1.1135828681290150e-03</internalNodes>
          <leafValues>
            -9.5677219331264496e-02 3.8379883766174316e-01</leafValues></_>
        <_>
          <internalNodes>
            0 -1 972 5.0213377922773361e-02</internalNodes>
          <leafValues>
            5.6643795222043991e-02 -6.3359892368316650e-01</leafValues></_>
        <_>
          <internalNodes>
            0 -1 970 1.5318898949772120e-03</internalNodes>
          <leafValues>
            -1.3468246161937714e-01 2.5523504614830017e-01</leafValues></_>
        <_>
          <internalNodes>
            0 -1 960 4.7197703679557890e-05</internalNodes>
          <leafValues>
            -2.1264050900936127e-01 1.5584963560104370e-01</leafValues></_>
        <_>
          <internalNodes>
            0 -1 25 -8.6177419871091843e-03</internalNodes>
          <leafValues>
            2.5520500540733337e-01 -1.4423920214176178e-01</leafValues></_>
        <_>
          <internalNodes>
            0 -1 23 1.9952435046434402e-02</internalNodes>
          <leafValues>
            -1.0629926621913910e-01 3.4414350986480713e-01</leafValues></_></weakClassifiers></_>
    <!-- stage 12 -->
    <_>
      <maxWeakCount>55</maxWeakCount>
      <stageThreshold>-2.0610790252685547e+00</stageThreshold>
      <weakClassifiers>
        <_>
          <internalNodes>
            0 -1 666 -3.3888876438140869e-02</internalNodes>
          <leafValues>
            2.9329276084899902e-01 -4.0910807251930237e-01</leafValues></_>
        <_>
          <internalNodes>
            0 -1 863 -4.5767757110297680e-03</internalNodes>
          <leafValues>
            3.2458209991455078e-01 -2.5099977850914001e-01</leafValues></_>
        <_>
          <internalNodes>
            0 -1 538 -2.2701058536767960e-02</internalNodes>
          <leafValues>
            3.5495302081108093e-01 -2.7203223109245300e-01</leafValues></_>
        <_>
          <internalNodes>
            0 -1 273 3.9586001075804234e-03</internalNodes>
          <leafValues>
            -2.5950983166694641e-01 2.7433308959007263e-01</leafValues></_>
        <_>
          <internalNodes>
            0 -1 504 -6.4626430685166270e-05</internalNodes>
          <leafValues>
            1.3866122066974640e-01 -4.3737113475799561e-01</leafValues></_>
        <_>
          <internalNodes>
            0 -1 540 7.7117078006267548e-02</internalNodes>
          <leafValues>
            -1.3084027171134949e-01 5.2852231264114380e-01</leafValues></_>
        <_>
          <internalNodes>
            0 -1 245 -2.3631098866462708e-01</internalNodes>
          <leafValues>
            4.6350339055061340e-01 -1.6679047048091888e-01</leafValues></_>
        <_>
          <internalNodes>
            0 -1 104 -1.4353836886584759e-03</internalNodes>
          <leafValues>
            3.9883390069007874e-01 -1.2444359809160233e-01</leafValues></_>
        <_>
          <internalNodes>
            0 -1 797 6.9255568087100983e-03</internalNodes>
          <leafValues>
            -3.4376734495162964e-01 1.3582728803157806e-01</leafValues></_>
        <_>
          <internalNodes>
            0 -1 957 9.0438164770603180e-03</internalNodes>
          <leafValues>
            -1.6875948011875153e-01 2.7716243267059326e-01</leafValues></_>
        <_>
          <internalNodes>
            0 -1 141 1.3275223970413208e-01</internalNodes>
          <leafValues>
            -1.2716974318027496e-01 4.6988347172737122e-01</leafValues></_>
        <_>
          <internalNodes>
            0 -1 640 -1.2299701571464539e-02</internalNodes>
          <leafValues>
            3.7150380015373230e-01 -1.8437267839908600e-01</leafValues></_>
        <_>
          <internalNodes>
            0 -1 169 -1.4523766003549099e-03</internalNodes>
          <leafValues>
            -5.9763473272323608e-01 6.0817245393991470e-02</leafValues></_>
        <_>
          <internalNodes>
            0 -1 830 -9.4225227832794189e-02</internalNodes>
          <leafValues>
            5.5367451906204224e-01 -8.5736900568008423e-02</leafValues></_>
        <_>
          <internalNodes>
            0 -1 26 -1.0211631655693054e-02</internalNodes>
          <leafValues>
            3.0730864405632019e-01 -1.5230059623718262e-01</leafValues></_>
        <_>
          <internalNodes>
            0 -1 264 -1.4705710113048553e-02</internalNodes>
          <leafValues>
            -5.6393998861312866e-01 8.1263147294521332e-02</leafValues></_>
        <_>
          <internalNodes>
            0 -1 646 1.8367268145084381e-01</internalNodes>
          <leafValues>
            4.8389937728643417e-02 -7.8524696826934814e-01</leafValues></_>
        <_>
          <internalNodes>
            0 -1 848 1.2323771370574832e-03</internalNodes>
          <leafValues>
            5.5930059403181076e-02 -7.2701543569564819e-01</leafValues></_>
        <_>
          <internalNodes>
            0 -1 75 3.2782864570617676e-01</internalNodes>
          <leafValues>
            4.2874325066804886e-02 -7.6494735479354858e-01</leafValues></_>
        <_>
          <internalNodes>
            0 -1 208 7.5333840213716030e-03</internalNodes>
          <leafValues>
            5.3418088704347610e-02 -6.5999615192413330e-01</leafValues></_>
        <_>
          <internalNodes>
            0 -1 209 -3.0288703739643097e-02</internalNodes>
          <leafValues>
            -6.9409739971160889e-01 4.7261815518140793e-02</leafValues></_>
        <_>
          <internalNodes>
            0 -1 985 6.4139678142964840e-03</internalNodes>
          <leafValues>
            5.0736434757709503e-02 -6.4404392242431641e-01</leafValues></_>
        <_>
          <internalNodes>
            0 -1 651 1.4065263792872429e-02</internalNodes>
          <leafValues>
            -1.5230241417884827e-01 2.8042432665824890e-01</leafValues></_>
        <_>
          <internalNodes>
            0 -1 228 -3.4230077266693115e-01</internalNodes>
          <leafValues>
            -7.0118200778961182e-01 7.1430325508117676e-02</leafValues></_>
        <_>
          <internalNodes>
            0 -1 611 2.5237449444830418e-03</internalNodes>
          <leafValues>
            -1.0398169606924057e-01 4.7503167390823364e-01</leafValues></_>
        <_>
          <internalNodes>
            0 -1 839 1.5842630527913570e-03</internalNodes>
          <leafValues>
            -8.3150558173656464e-02 4.3722927570343018e-01</leafValues></_>
        <_>
          <internalNodes>
            0 -1 788 -7.1943759918212891e-02</internalNodes>
          <leafValues>
            -7.5196254253387451e-01 5.6755684316158295e-02</leafValues></_>
        <_>
          <internalNodes>
            0 -1 773 1.4117634855210781e-03</internalNodes>
          <leafValues>
            -2.0960868895053864e-01 1.6557481884956360e-01</leafValues></_>
        <_>
          <internalNodes>
            0 -1 856 -4.6362434513866901e-03</internalNodes>
          <leafValues>
            -8.3924192190170288e-01 4.8494875431060791e-02</leafValues></_>
        <_>
          <internalNodes>
            0 -1 479 -1.0217269882559776e-02</internalNodes>
          <leafValues>
            1.8285495042800903e-01 -2.0112299919128418e-01</leafValues></_>
        <_>
          <internalNodes>
            0 -1 896 2.7143945917487144e-03</internalNodes>
          <leafValues>
            -1.9066467881202698e-01 2.1619346737861633e-01</leafValues></_>
        <_>
          <internalNodes>
            0 -1 873 1.2244355166330934e-03</internalNodes>
          <leafValues>
            -1.5348532795906067e-01 2.6044765114784241e-01</leafValues></_>
        <_>
          <internalNodes>
            0 -1 776 -5.0747371278703213e-04</internalNodes>
          <leafValues>
            1.1645066738128662e-01 -3.7118080258369446e-01</leafValues></_>
        <_>
          <internalNodes>
            0 -1 642 2.1201821044087410e-02</internalNodes>
          <leafValues>
            -1.2035357207059860e-01 3.5632923245429993e-01</leafValues></_>
        <_>
          <internalNodes>
            0 -1 847 -3.8668578490614891e-03</internalNodes>
          <leafValues>
            -5.2989578247070312e-01 9.0144991874694824e-02</leafValues></_>
        <_>
          <internalNodes>
            0 -1 395 -1.3605897547677159e-03</internalNodes>
          <leafValues>
            -5.1443189382553101e-01 6.2069091945886612e-02</leafValues></_>
        <_>
          <internalNodes>
            0 -1 9 -4.6920035965740681e-03</internalNodes>
          <leafValues>
            1.9702230393886566e-01 -1.8629218637943268e-01</leafValues></_>
        <_>
          <internalNodes>
            0 -1 665 1.8030998762696981e-03</internalNodes>
          <leafValues>
            -9.1225504875183105e-02 3.7864932417869568e-01</leafValues></_>
        <_>
          <internalNodes>
            0 -1 357 -6.4068228006362915e-02</internalNodes>
          <leafValues>
            4.0891200304031372e-01 -7.7211029827594757e-02</leafValues></_>
        <_>
          <internalNodes>
            0 -1 445 6.5897572785615921e-03</internalNodes>
          <leafValues>
            -9.3011997640132904e-02 4.1464760899543762e-01</leafValues></_>
        <_>
          <internalNodes>
            0 -1 742 -8.1944987177848816e-03</internalNodes>
          <leafValues>
            -7.5359123945236206e-01 5.2968267351388931e-02</leafValues></_>
        <_>
          <internalNodes>
            0 -1 405 2.1405625157058239e-03</internalNodes>
          <leafValues>
            3.3378478139638901e-02 -7.4614131450653076e-01</leafValues></_>
        <_>
          <internalNodes>
            0 -1 443 4.1148066520690918e-04</internalNodes>
          <leafValues>
            3.6507546901702881e-02 -7.1600610017776489e-01</leafValues></_>
        <_>
          <internalNodes>
            0 -1 58 7.8697822988033295e-02</internalNodes>
          <leafValues>
            3.1393624842166901e-02 -7.9286485910415649e-01</leafValues></_>
        <_>
          <internalNodes>
            0 -1 600 6.0086871962994337e-04</internalNodes>
          <leafValues>
            -2.4898697435855865e-01 1.2836772203445435e-01</leafValues></_>
        <_>
          <internalNodes>
            0 -1 92 -1.6864931583404541e-01</internalNodes>
          <leafValues>
            -7.8792685270309448e-01 4.6221971511840820e-02</leafValues></_>
        <_>
          <internalNodes>
            0 -1 420 9.9100219085812569e-04</internalNodes>
          <leafValues>
            -1.4938309788703918e-01 2.3489062488079071e-01</leafValues></_>
        <_>
          <internalNodes>
            0 -1 166 -3.2253984827548265e-03</internalNodes>
          <leafValues>
            2.1202497184276581e-01 -1.3857111334800720e-01</leafValues></_>
        <_>
          <internalNodes>
            0 -1 398 -5.0786025822162628e-03</internalNodes>
          <leafValues>
            -6.9085460901260376e-01 4.9983471632003784e-02</leafValues></_>
        <_>
          <internalNodes>
            0 -1 386 1.6864913050085306e-03</internalNodes>
          <leafValues>
            -8.1959307193756104e-02 4.2695361375808716e-01</leafValues></_>
        <_>
          <internalNodes>
            0 -1 994 8.0372812226414680e-04</internalNodes>
          <leafValues>
            6.8509697914123535e-02 -4.7887799143791199e-01</leafValues></_>
        <_>
          <internalNodes>
            0 -1 289 1.6090204939246178e-02</internalNodes>
          <leafValues>
            -9.3557640910148621e-02 3.3064818382263184e-01</leafValues></_>
        <_>
          <internalNodes>
            0 -1 279 -7.0175923407077789e-02</internalNodes>
          <leafValues>
            2.6245746016502380e-01 -1.1113169044256210e-01</leafValues></_>
        <_>
          <internalNodes>
            0 -1 998 -1.0924602299928665e-01</internalNodes>
          <leafValues>
            2.4231144785881042e-01 -1.5538518130779266e-01</leafValues></_>
        <_>
          <internalNodes>
            0 -1 741 8.2898382097482681e-03</internalNodes>
          <leafValues>
            -1.4889261126518250e-01 2.1170373260974884e-01</leafValues></_></weakClassifiers></_>
    <!-- stage 13 -->
    <_>
      <maxWeakCount>70</maxWeakCount>
      <stageThreshold>-2.1290674209594727e+00</stageThreshold>
      <weakClassifiers>
        <_>
          <internalNodes>
            0 -1 339 -1.0879231616854668e-02</internalNodes>
          <leafValues>
            3.6133122444152832e-01 -3.7819185853004456e-01</leafValues></_>
        <_>
          <internalNodes>
            0 -1 450 -9.4449648167937994e-04</internalNodes>
          <leafValues>
            1.9585588574409485e-01 -4.5026651024818420e-01</leafValues></_>
        <_>
          <internalNodes>
            0 -1 701 2.9104906134307384e-03</internalNodes>
          <leafValues>
            -1.7963783442974091e-01 3.9069417119026184e-01</leafValues></_>
        <_>
          <internalNodes>
            0 -1 607 1.0783573985099792e-01</internalNodes>
          <leafValues>
            -9.9787145853042603e-02 5.8655947446823120e-01</leafValues></_>
        <_>
          <internalNodes>
            0 -1 82 6.8414643406867981e-02</internalNodes>
          <leafValues>
            -2.0076556503772736e-01 2.8597140312194824e-01</leafValues></_>
        <_>
          <internalNodes>
            0 -1 221 1.3806101679801941e-01</internalNodes>
          <leafValues>
            -1.0199575126171112e-01 5.6621056795120239e-01</leafValues></_>
        <_>
          <internalNodes>
            0 -1 121 -2.9265095945447683e-03</internalNodes>
          <leafValues>
            2.2727990150451660e-01 -2.7040395140647888e-01</leafValues></_>
        <_>
          <internalNodes>
            0 -1 785 -2.0401101559400558e-02</internalNodes>
          <leafValues>
            7.0508557558059692e-01 -9.3984663486480713e-02</leafValues></_>
        <_>
          <internalNodes>
            0 -1 1009 1.1494129430502653e-03</internalNodes>
          <leafValues>
            -1.5874437987804413e-01 2.8517493605613708e-01</leafValues></_>
        <_>
          <internalNodes>
            0 -1 429 -3.8311079144477844e-02</internalNodes>
          <leafValues>
            2.0835125446319580e-01 -2.2161664068698883e-01</leafValues></_>
        <_>
          <internalNodes>
            0 -1 301 -2.4384292960166931e-01</internalNodes>
          <leafValues>
            -6.2441068887710571e-01 9.5247089862823486e-02</leafValues></_>
        <_>
          <internalNodes>
            0 -1 117 -3.9750533178448677e-03</internalNodes>
          <leafValues>
            -7.6135468482971191e-01 4.7989696264266968e-02</leafValues></_>
        <_>
          <internalNodes>
            0 -1 652 3.3460804261267185e-03</internalNodes>
          <leafValues>
            -1.4481037855148315e-01 3.0181589722633362e-01</leafValues></_>
        <_>
          <internalNodes>
            0 -1 374 -7.9296641051769257e-03</internalNodes>
          <leafValues>
            -7.6318025588989258e-01 5.6053940206766129e-02</leafValues></_>
        <_>
          <internalNodes>
            0 -1 748 4.3857489799847826e-05</internalNodes>
          <leafValues>
            -2.2135291993618011e-01 1.7827378213405609e-01</leafValues></_>
        <_>
          <internalNodes>
            0 -1 597 -4.8582749441266060e-03</internalNodes>
          <leafValues>
            3.3456638455390930e-01 -1.4506092667579651e-01</leafValues></_>
        <_>
          <internalNodes>
            0 -1 20 -3.0410098843276501e-03</internalNodes>
          <leafValues>
            1.2933340668678284e-01 -2.9140418767929077e-01</leafValues></_>
        <_>
          <internalNodes>
            0 -1 919 -5.1207793876528740e-03</internalNodes>
          <leafValues>
            -8.8905888795852661e-01 4.6522378921508789e-02</leafValues></_>
        <_>
          <internalNodes>
            0 -1 617 9.1849465388804674e-04</internalNodes>
          <leafValues>
            -1.1849632114171982e-01 3.5864821076393127e-01</leafValues></_>
        <_>
          <internalNodes>
            0 -1 517 -2.4883262813091278e-02</internalNodes>
          <leafValues>
            3.0357614159584045e-01 -1.3161794841289520e-01</leafValues></_>
        <_>
          <internalNodes>
            0 -1 188 -8.5126049816608429e-02</internalNodes>
          <leafValues>
            1.7391385138034821e-01 -2.9023575782775879e-01</leafValues></_>
        <_>
          <internalNodes>
            0 -1 675 -7.8908509749453515e-05</internalNodes>
          <leafValues>
            2.7257362008094788e-01 -1.3383045792579651e-01</leafValues></_>
        <_>
          <internalNodes>
            0 -1 393 -5.5621489882469177e-02</internalNodes>
          <leafValues>
            -7.6632255315780640e-01 6.9547653198242188e-02</leafValues></_>
        <_>
          <internalNodes>
            0 -1 900 -3.1306208111345768e-03</internalNodes>
          <leafValues>
            1.9028203189373016e-01 -1.9790937006473541e-01</leafValues></_>
        <_>
          <internalNodes>
            0 -1 78 -2.4251407012343407e-03</internalNodes>
          <leafValues>
            1.8603654205799103e-01 -1.9087497889995575e-01</leafValues></_>
        <_>
          <internalNodes>
            0 -1 768 3.6734767490997910e-04</internalNodes>
          <leafValues>
            5.1600035279989243e-02 -7.6273125410079956e-01</leafValues></_>
        <_>
          <internalNodes>
            0 -1 712 -4.3596895411610603e-03</internalNodes>
          <leafValues>
            7.7853941917419434e-01 -5.3967468440532684e-02</leafValues></_>
        <_>
          <internalNodes>
            0 -1 800 -7.6556792482733727e-03</internalNodes>
          <leafValues>
            4.8240095376968384e-01 -5.5160682648420334e-02</leafValues></_>
        <_>
          <internalNodes>
            0 -1 341 4.0626946836709976e-02</internalNodes>
          <leafValues>
            4.2584698647260666e-02 -7.1892201900482178e-01</leafValues></_>
        <_>
          <internalNodes>
            0 -1 578 1.4736524783074856e-02</internalNodes>
          <leafValues>
            7.3318272829055786e-02 -4.0257060527801514e-01</leafValues></_>
        <_>
          <internalNodes>
            0 -1 327 5.9590768069028854e-03</internalNodes>
          <leafValues>
            -1.5862318873405457e-01 2.3225456476211548e-01</leafValues></_>
        <_>
          <internalNodes>
            0 -1 613 8.6393561214208603e-03</internalNodes>
          <leafValues>
            -1.0767947137355804e-01 3.2927712798118591e-01</leafValues></_>
        <_>
          <internalNodes>
            0 -1 257 1.2371499324217439e-03</internalNodes>
          <leafValues>
            5.4391141980886459e-02 -6.7014706134796143e-01</leafValues></_>
        <_>
          <internalNodes>
            0 -1 218 -4.6729095280170441e-02</internalNodes>
          <leafValues>
            -4.6287339925765991e-01 6.1380852013826370e-02</leafValues></_>
        <_>
          <internalNodes>
            0 -1 40 1.7719611525535583e-02</internalNodes>
          <leafValues>
            -1.1327479779720306e-01 3.2415634393692017e-01</leafValues></_>
        <_>
          <internalNodes>
            0 -1 6 1.1408790305722505e-04</internalNodes>
          <leafValues>
            1.0378361493349075e-01 -3.9401713013648987e-01</leafValues></_>
        <_>
          <internalNodes>
            0 -1 635 3.5202275030314922e-03</internalNodes>
          <leafValues>
            2.7724299579858780e-02 -9.4022446870803833e-01</leafValues></_>
        <_>
          <internalNodes>
            0 -1 292 -5.1427714060992002e-04</internalNodes>
          <leafValues>
            1.9076383113861084e-01 -1.5843434631824493e-01</leafValues></_>
        <_>
          <internalNodes>
            0 -1 317 1.3289004564285278e-01</internalNodes>
          <leafValues>
            -1.1254296451807022e-01 2.7980732917785645e-01</leafValues></_>
        <_>
          <internalNodes>
            0 -1 242 -1.5684059262275696e-01</internalNodes>
          <leafValues>
            2.6937723159790039e-01 -1.6867621243000031e-01</leafValues></_>
        <_>
          <internalNodes>
            0 -1 730 3.3166367211379111e-04</internalNodes>
          <leafValues>
            4.7316085547208786e-02 -6.4773476123809814e-01</leafValues></_>
        <_>
          <internalNodes>
            0 -1 618 1.1351094581186771e-03</internalNodes>
          <leafValues>
            -1.3559551537036896e-01 2.1576842665672302e-01</leafValues></_>
        <_>
          <internalNodes>
            0 -1 101 2.2134225815534592e-02</internalNodes>
          <leafValues>
            7.5605034828186035e-02 -4.3128854036331177e-01</leafValues></_>
        <_>
          <internalNodes>
            0 -1 959 9.8720530513674021e-04</internalNodes>
          <leafValues>
            -2.6933935284614563e-01 1.1154758185148239e-01</leafValues></_>
        <_>
          <internalNodes>
            0 -1 978 -1.8289800733327866e-02</internalNodes>
          <leafValues>
            -6.2874734401702881e-01 5.4512120783329010e-02</leafValues></_>
        <_>
          <internalNodes>
            0 -1 763 9.8108057864010334e-04</internalNodes>
          <leafValues>
            -7.1445286273956299e-02 4.8939865827560425e-01</leafValues></_>
        <_>
          <internalNodes>
            0 -1 272 -2.1014070138335228e-02</internalNodes>
          <leafValues>
            -5.2041524648666382e-01 6.3127741217613220e-02</leafValues></_>
        <_>
          <internalNodes>
            0 -1 775 2.7531200647354126e-01</internalNodes>
          <leafValues>
            3.1036715954542160e-02 -7.8706455230712891e-01</leafValues></_>
        <_>
          <internalNodes>
            0 -1 380 1.9189009908586740e-03</internalNodes>
          <leafValues>
            -9.5422588288784027e-02 3.1954994797706604e-01</leafValues></_>
        <_>
          <internalNodes>
            0 -1 581 -9.3653034418821335e-03</internalNodes>
          <leafValues>
            -7.9947817325592041e-01 4.0490482002496719e-02</leafValues></_>
        <_>
          <internalNodes>
            0 -1 200 -1.0125210974365473e-03</internalNodes>
          <leafValues>
            3.5305121541023254e-01 -8.7241418659687042e-02</leafValues></_>
        <_>
          <internalNodes>
            0 -1 293 1.5906533226370811e-03</internalNodes>
          <leafValues>
            3.6098111420869827e-02 -8.4233540296554565e-01</leafValues></_>
        <_>
          <internalNodes>
            0 -1 383 1.7324399668723345e-03</internalNodes>
          <leafValues>
            -1.1218662559986115e-01 2.6857540011405945e-01</leafValues></_>
        <_>
          <internalNodes>
            0 -1 265 9.2738382518291473e-03</internalNodes>
          <leafValues>
            -9.8117925226688385e-02 2.8280094265937805e-01</leafValues></_>
        <_>
          <internalNodes>
            0 -1 210 -1.2043446302413940e-02</internalNodes>
          <leafValues>
            2.2084447741508484e-01 -1.3335937261581421e-01</leafValues></_>
        <_>
          <internalNodes>
            0 -1 22 2.7390925679355860e-03</internalNodes>
          <leafValues>
            -1.1426926404237747e-01 2.9212915897369385e-01</leafValues></_>
        <_>
          <internalNodes>
            0 -1 455 7.0411255583167076e-03</internalNodes>
          <leafValues>
            5.3026940673589706e-02 -6.3464552164077759e-01</leafValues></_>
        <_>
          <internalNodes>
            0 -1 34 2.5797009468078613e-01</internalNodes>
          <leafValues>
            2.8165891766548157e-02 -7.5266224145889282e-01</leafValues></_>
        <_>
          <internalNodes>
            0 -1 62 -2.8880453109741211e-01</internalNodes>
          <leafValues>
            -8.4415608644485474e-01 2.7295257896184921e-02</leafValues></_>
        <_>
          <internalNodes>
            0 -1 1011 -1.3709937222301960e-02</internalNodes>
          <leafValues>
            -4.0062880516052246e-01 6.1232507228851318e-02</leafValues></_>
        <_>
          <internalNodes>
            0 -1 499 -1.4565819874405861e-03</internalNodes>
          <leafValues>
            -7.9002195596694946e-01 3.0472982674837112e-02</leafValues></_>
        <_>
          <internalNodes>
            0 -1 127 -7.4114864692091942e-03</internalNodes>
          <leafValues>
            1.7996382713317871e-01 -1.4914841949939728e-01</leafValues></_>
        <_>
          <internalNodes>
            0 -1 980 -4.6817727707093582e-05</internalNodes>
          <leafValues>
            1.0772803425788879e-01 -2.5105896592140198e-01</leafValues></_>
        <_>
          <internalNodes>
            0 -1 1010 -1.3209521770477295e-02</internalNodes>
          <leafValues>
            -5.2751648426055908e-01 4.9988143146038055e-02</leafValues></_>
        <_>
          <internalNodes>
            0 -1 536 2.5056172162294388e-03</internalNodes>
          <leafValues>
            -8.5987724363803864e-02 3.2653251290321350e-01</leafValues></_>
        <_>
          <internalNodes>
            0 -1 548 -3.4360275603830814e-03</internalNodes>
          <leafValues>
            3.2782611250877380e-01 -8.3777099847793579e-02</leafValues></_>
        <_>
          <internalNodes>
            0 -1 172 -8.6044659838080406e-04</internalNodes>
          <leafValues>
            -3.8266623020172119e-01 7.7158980071544647e-02</leafValues></_>
        <_>
          <internalNodes>
            0 -1 802 4.4229412451386452e-03</internalNodes>
          <leafValues>
            4.9602877348661423e-02 -5.3530323505401611e-01</leafValues></_>
        <_>
          <internalNodes>
            0 -1 929 1.4142199652269483e-03</internalNodes>
          <leafValues>
            3.0596785247325897e-02 -7.7532655000686646e-01</leafValues></_>
        <_>
          <internalNodes>
            0 -1 33 -5.0584244728088379e-01</internalNodes>
          <leafValues>
            -4.4092452526092529e-01 5.5085502564907074e-02</leafValues></_></weakClassifiers></_>
    <!-- stage 14 -->
    <_>
      <maxWeakCount>77</maxWeakCount>
      <stageThreshold>-2.1494319438934326e+00</stageThreshold>
      <weakClassifiers>
        <_>
          <internalNodes>
            0 -1 311 1.0409454256296158e-01</internalNodes>
          <leafValues>
            -4.1344690322875977e-01 2.9221117496490479e-01</leafValues></_>
        <_>
          <internalNodes>
            0 -1 709 9.7411684691905975e-03</internalNodes>
          <leafValues>
            -3.4927752614021301e-01 3.0858597159385681e-01</leafValues></_>
        <_>
          <internalNodes>
            0 -1 284 2.2604074329137802e-03</internalNodes>
          <leafValues>
            -1.2773300707340240e-01 5.1658862829208374e-01</leafValues></_>
        <_>
          <internalNodes>
            0 -1 857 -3.2055177725851536e-03</internalNodes>
          <leafValues>
            2.7114960551261902e-01 -2.2788996994495392e-01</leafValues></_>
        <_>
          <internalNodes>
            0 -1 83 -1.6367882490158081e-02</internalNodes>
          <leafValues>
            1.5148161351680756e-01 -3.6969703435897827e-01</leafValues></_>
        <_>
          <internalNodes>
            0 -1 828 -6.0739912092685699e-02</internalNodes>
          <leafValues>
            4.1162592172622681e-01 -1.2697370350360870e-01</leafValues></_>
        <_>
          <internalNodes>
            0 -1 44 -2.5138902664184570e-01</internalNodes>
          <leafValues>
            5.2878814935684204e-01 -1.1967256665229797e-01</leafValues></_>
        <_>
          <internalNodes>
            0 -1 31 -8.0520258052274585e-04</internalNodes>
          <leafValues>
            1.0696630179882050e-01 -4.4679015874862671e-01</leafValues></_>
        <_>
          <internalNodes>
            0 -1 514 -1.1263355612754822e-01</internalNodes>
          <leafValues>
            -6.1914288997650146e-01 8.0874219536781311e-02</leafValues></_>
        <_>
          <internalNodes>
            0 -1 560 1.7878662329167128e-03</internalNodes>
          <leafValues>
            -1.7443563044071198e-01 2.8598904609680176e-01</leafValues></_>
        <_>
          <internalNodes>
            0 -1 407 -7.5481110252439976e-03</internalNodes>
          <leafValues>
            -4.1166687011718750e-01 1.0271230340003967e-01</leafValues></_>
        <_>
          <internalNodes>
            0 -1 572 3.7016003625467420e-04</internalNodes>
          <leafValues>
            5.1461260765790939e-02 -7.5149238109588623e-01</leafValues></_>
        <_>
          <internalNodes>
            0 -1 870 -5.5458068847656250e-02</internalNodes>
          <leafValues>
            -5.9434711933135986e-01 6.1330355703830719e-02</leafValues></_>
        <_>
          <internalNodes>
            0 -1 715 3.1512738205492496e-03</internalNodes>
          <leafValues>
            -1.0674443095922470e-01 3.7291091680526733e-01</leafValues></_>
        <_>
          <internalNodes>
            0 -1 977 3.0222823843359947e-03</internalNodes>
          <leafValues>
            -1.6102695465087891e-01 2.3398774862289429e-01</leafValues></_>
        <_>
          <internalNodes>
            0 -1 259 -1.0850655846297741e-02</internalNodes>
          <leafValues>
            -5.2186322212219238e-01 6.1715129762887955e-02</leafValues></_>
        <_>
          <internalNodes>
            0 -1 717 3.0449493788182735e-03</internalNodes>
          <leafValues>
            -8.0078005790710449e-02 4.7680711746215820e-01</leafValues></_>
        <_>
          <internalNodes>
            0 -1 253 -6.5333757083863020e-04</internalNodes>
          <leafValues>
            -4.6589010953903198e-01 7.1608014404773712e-02</leafValues></_>
        <_>
          <internalNodes>
            0 -1 287 -4.3172860750928521e-04</internalNodes>
          <leafValues>
            3.7248101830482483e-01 -8.2276061177253723e-02</leafValues></_>
        <_>
          <internalNodes>
            0 -1 252 1.6458099707961082e-03</internalNodes>
          <leafValues>
            7.1667596697807312e-02 -4.6835380792617798e-01</leafValues></_>
        <_>
          <internalNodes>
            0 -1 337 8.0505327787250280e-05</internalNodes>
          <leafValues>
            -1.5275220572948456e-01 2.0895630121231079e-01</leafValues></_>
        <_>
          <internalNodes>
            0 -1 735 -1.4499153941869736e-02</internalNodes>
          <leafValues>
            -7.9400664567947388e-01 2.8909293934702873e-02</leafValues></_>
        <_>
          <internalNodes>
            0 -1 447 -5.3866640664637089e-03</internalNodes>
          <leafValues>
            1.5359286963939667e-01 -1.9740842282772064e-01</leafValues></_>
        <_>
          <internalNodes>
            0 -1 814 1.2333106249570847e-02</internalNodes>
          <leafValues>
            -8.0396987497806549e-02 3.6284711956977844e-01</leafValues></_>
        <_>
          <internalNodes>
            0 -1 598 4.5232316479086876e-03</internalNodes>
          <leafValues>
            -9.7077392041683197e-02 3.2552972435951233e-01</leafValues></_>
        <_>
          <internalNodes>
            0 -1 448 -5.0782829523086548e-02</internalNodes>
          <leafValues>
            -8.2387137413024902e-01 4.4530060142278671e-02</leafValues></_>
        <_>
          <internalNodes>
            0 -1 3 -8.7699806317687035e-04</internalNodes>
          <leafValues>
            1.9833894073963165e-01 -1.6924297809600830e-01</leafValues></_>
        <_>
          <internalNodes>
            0 -1 65 -6.8859688937664032e-02</internalNodes>
          <leafValues>
            -5.9540265798568726e-01 5.2014008164405823e-02</leafValues></_>
        <_>
          <internalNodes>
            0 -1 593 -1.0451728105545044e-01</internalNodes>
          <leafValues>
            1.3460569083690643e-01 -2.2002550959587097e-01</leafValues></_>
        <_>
          <internalNodes>
            0 -1 570 -1.1780183995142579e-03</internalNodes>
          <leafValues>
            -7.8144872188568115e-01 3.7818498909473419e-02</leafValues></_>
        <_>
          <internalNodes>
            0 -1 133 -9.5858834683895111e-03</internalNodes>
          <leafValues>
            1.2038137763738632e-01 -2.4240577220916748e-01</leafValues></_>
        <_>
          <internalNodes>
            0 -1 531 2.3187915794551373e-03</internalNodes>
          <leafValues>
            -1.1079738289117813e-01 3.2900446653366089e-01</leafValues></_>
        <_>
          <internalNodes>
            0 -1 643 2.3005786351859570e-03</internalNodes>
          <leafValues>
            -8.3323292434215546e-02 3.5498678684234619e-01</leafValues></_>
        <_>
          <internalNodes>
            0 -1 175 2.2506914101541042e-03</internalNodes>
          <leafValues>
            4.1571673005819321e-02 -7.6191675662994385e-01</leafValues></_>
        <_>
          <internalNodes>
            0 -1 206 -3.2648295164108276e-03</internalNodes>
          <leafValues>
            1.8500407040119171e-01 -1.5589866042137146e-01</leafValues></_>
        <_>
          <internalNodes>
            0 -1 1003 1.7094695940613747e-02</internalNodes>
          <leafValues>
            5.4236631840467453e-02 -5.6599694490432739e-01</leafValues></_>
        <_>
          <internalNodes>
            0 -1 440 -2.0581010729074478e-02</internalNodes>
          <leafValues>
            -7.6647567749023438e-01 2.9872013255953789e-02</leafValues></_>
        <_>
          <internalNodes>
            0 -1 377 1.2829411774873734e-02</internalNodes>
          <leafValues>
            -8.5343867540359497e-02 3.4311187267303467e-01</leafValues></_>
        <_>
          <internalNodes>
            0 -1 544 -2.7503533288836479e-02</internalNodes>
          <leafValues>
            2.3529216647148132e-01 -1.3583938777446747e-01</leafValues></_>
        <_>
          <internalNodes>
            0 -1 294 7.6066419482231140e-02</internalNodes>
          <leafValues>
            -9.2435702681541443e-02 4.1246286034584045e-01</leafValues></_>
        <_>
          <internalNodes>
            0 -1 189 2.9109911993145943e-03</internalNodes>
          <leafValues>
            7.6800465583801270e-02 -4.9182382225990295e-01</leafValues></_>
        <_>
          <internalNodes>
            0 -1 874 -6.9366238312795758e-04</internalNodes>
          <leafValues>
            3.4186235070228577e-01 -8.4541529417037964e-02</leafValues></_>
        <_>
          <internalNodes>
            0 -1 500 6.9200359284877777e-03</internalNodes>
          <leafValues>
            4.3368529528379440e-02 -6.8776100873947144e-01</leafValues></_>
        <_>
          <internalNodes>
            0 -1 110 -1.6833430854603648e-03</internalNodes>
          <leafValues>
            -5.1098072528839111e-01 4.7424025833606720e-02</leafValues></_>
        <_>
          <internalNodes>
            0 -1 656 1.2638561893254519e-03</internalNodes>
          <leafValues>
            -1.0585631430149078e-01 2.4710392951965332e-01</leafValues></_>
        <_>
          <internalNodes>
            0 -1 698 -5.0869532860815525e-03</internalNodes>
          <leafValues>
            2.2474661469459534e-01 -1.2988887727260590e-01</leafValues></_>
        <_>
          <internalNodes>
            0 -1 594 2.9458992648869753e-03</internalNodes>
          <leafValues>
            -1.7532348632812500e-01 1.6886603832244873e-01</leafValues></_>
        <_>
          <internalNodes>
            0 -1 751 -7.2812356054782867e-02</internalNodes>
          <leafValues>
            2.4110476672649384e-01 -1.2128818035125732e-01</leafValues></_>
        <_>
          <internalNodes>
            0 -1 939 -5.2805771701969206e-05</internalNodes>
          <leafValues>
            1.0161205381155014e-01 -2.9384380578994751e-01</leafValues></_>
        <_>
          <internalNodes>
            0 -1 216 3.9159655570983887e-03</internalNodes>
          <leafValues>
            -1.2401524931192398e-01 2.1218620240688324e-01</leafValues></_>
        <_>
          <internalNodes>
            0 -1 1002 -2.6209754869341850e-02</internalNodes>
          <leafValues>
            -5.4153168201446533e-01 4.3904658406972885e-02</leafValues></_>
        <_>
          <internalNodes>
            0 -1 813 3.0228588730096817e-03</internalNodes>
          <leafValues>
            -1.2006821483373642e-01 2.2194698452949524e-01</leafValues></_>
        <_>
          <internalNodes>
            0 -1 563 -2.3866385221481323e-02</internalNodes>
          <leafValues>
            2.4514508247375488e-01 -1.2966096401214600e-01</leafValues></_>
        <_>
          <internalNodes>
            0 -1 612 -4.8744127154350281e-02</internalNodes>
          <leafValues>
            -8.3683884143829346e-01 3.0892059206962585e-02</leafValues></_>
        <_>
          <internalNodes>
            0 -1 628 -3.7850005901418626e-04</internalNodes>
          <leafValues>
            2.1104659140110016e-01 -1.2643961608409882e-01</leafValues></_>
        <_>
          <internalNodes>
            0 -1 724 7.5739994645118713e-04</internalNodes>
          <leafValues>
            4.0925703942775726e-02 -6.5508484840393066e-01</leafValues></_>
        <_>
          <internalNodes>
            0 -1 32 3.7591192871332169e-02</internalNodes>
          <leafValues>
            -8.1756085157394409e-02 3.2242390513420105e-01</leafValues></_>
        <_>
          <internalNodes>
            0 -1 19 -5.3110316395759583e-02</internalNodes>
          <leafValues>
            3.2737600803375244e-01 -1.0715834796428680e-01</leafValues></_>
        <_>
          <internalNodes>
            0 -1 48 -6.3304789364337921e-03</internalNodes>
          <leafValues>
            2.3037607967853546e-01 -1.1537770181894302e-01</leafValues></_>
        <_>
          <internalNodes>
            0 -1 567 7.2609190829098225e-04</internalNodes>
          <leafValues>
            4.1210129857063293e-02 -6.3066220283508301e-01</leafValues></_>
        <_>
          <internalNodes>
            0 -1 381 1.5437954571098089e-03</internalNodes>
          <leafValues>
            -9.8861314356327057e-02 2.6091101765632629e-01</leafValues></_>
        <_>
          <internalNodes>
            0 -1 793 -8.1090431194752455e-04</internalNodes>
          <leafValues>
            3.8179692625999451e-01 -6.2649495899677277e-02</leafValues></_>
        <_>
          <internalNodes>
            0 -1 527 3.6690860986709595e-02</internalNodes>
          <leafValues>
            5.3348261862993240e-02 -5.0567841529846191e-01</leafValues></_>
        <_>
          <internalNodes>
            0 -1 226 6.4762774854898453e-03</internalNodes>
          <leafValues>
            8.1139378249645233e-02 -2.7622655034065247e-01</leafValues></_>
        <_>
          <internalNodes>
            0 -1 319 3.7061111070215702e-03</internalNodes>
          <leafValues>
            -8.2178808748722076e-02 3.0845543742179871e-01</leafValues></_>
        <_>
          <internalNodes>
            0 -1 79 1.6333353705704212e-03</internalNodes>
          <leafValues>
            1.3659822940826416e-01 -1.7678907513618469e-01</leafValues></_>
        <_>
          <internalNodes>
            0 -1 74 2.3101991415023804e-01</internalNodes>
          <leafValues>
            4.8006784170866013e-02 -5.3269070386886597e-01</leafValues></_>
        <_>
          <internalNodes>
            0 -1 732 -3.3960556611418724e-03</internalNodes>
          <leafValues>
            -8.7694269418716431e-01 2.1461300551891327e-02</leafValues></_>
        <_>
          <internalNodes>
            0 -1 470 -3.0640610493719578e-03</internalNodes>
          <leafValues>
            3.2490187883377075e-01 -7.9558126628398895e-02</leafValues></_>
        <_>
          <internalNodes>
            0 -1 733 2.8703920543193817e-03</internalNodes>
          <leafValues>
            3.4973215311765671e-02 -7.7621167898178101e-01</leafValues></_>
        <_>
          <internalNodes>
            0 -1 490 -4.0264660492539406e-03</internalNodes>
          <leafValues>
            2.5913393497467041e-01 -9.6369549632072449e-02</leafValues></_>
        <_>
          <internalNodes>
            0 -1 592 5.8325454592704773e-03</internalNodes>
          <leafValues>
            -1.4931879937648773e-01 1.8160466849803925e-01</leafValues></_>
        <_>
          <internalNodes>
            0 -1 1005 2.0062853582203388e-04</internalNodes>
          <leafValues>
            -2.6341560482978821e-01 1.0138341039419174e-01</leafValues></_>
        <_>
          <internalNodes>
            0 -1 458 -3.4897536039352417e-01</internalNodes>
          <leafValues>
            -6.4845085144042969e-01 3.7483885884284973e-02</leafValues></_>
        <_>
          <internalNodes>
            0 -1 107 -1.8499266356229782e-02</internalNodes>
          <leafValues>
            -5.0625735521316528e-01 4.5214492827653885e-02</leafValues></_>
        <_>
          <internalNodes>
            0 -1 626 6.7320512607693672e-04</internalNodes>
          <leafValues>
            -1.0158144682645798e-01 2.5198319554328918e-01</leafValues></_>
        <_>
          <internalNodes>
            0 -1 4 2.5276057422161102e-03</internalNodes>
          <leafValues>
            5.2570417523384094e-02 -4.7843328118324280e-01</leafValues></_></weakClassifiers></_>
    <!-- stage 15 -->
    <_>
      <maxWeakCount>72</maxWeakCount>
      <stageThreshold>-1.9023331403732300e+00</stageThreshold>
      <weakClassifiers>
        <_>
          <internalNodes>
            0 -1 54 -1.4325916767120361e-01</internalNodes>
          <leafValues>
            5.0822991132736206e-01 -3.0900242924690247e-01</leafValues></_>
        <_>
          <internalNodes>
            0 -1 494 -1.2610731646418571e-02</internalNodes>
          <leafValues>
            2.4488370120525360e-01 -3.3687585592269897e-01</leafValues></_>
        <_>
          <internalNodes>
            0 -1 449 -2.0626336336135864e-03</internalNodes>
          <leafValues>
            1.3760814070701599e-01 -4.9025806784629822e-01</leafValues></_>
        <_>
          <internalNodes>
            0 -1 150 -2.5717171374708414e-03</internalNodes>
          <leafValues>
            2.9980978369712830e-01 -1.9342713057994843e-01</leafValues></_>
        <_>
          <internalNodes>
            0 -1 662 5.6001666933298111e-02</internalNodes>
          <leafValues>
            -1.7665603756904602e-01 4.5290127396583557e-01</leafValues></_>
        <_>
          <internalNodes>
            0 -1 283 -2.4633090198040009e-01</internalNodes>
          <leafValues>
            4.4295778870582581e-01 -2.0348459482192993e-01</leafValues></_>
        <_>
          <internalNodes>
